{"learner":{"attributes":{"scikit_learn":"{\"_estimator_type\": \"regressor\"}"},"feature_names":["MedInc","AveOccup","Latitude","Longitude","point_location","bedrooms_per_room","HouseAge"],"feature_types":["float","float","float","float","float","float","float"],"gradient_booster":{"model":{"gbtree_model_param":{"num_parallel_tree":"1","num_trees":"500"},"iteration_indptr":[0,1,2,3,4,5,6,7,8,9,10,11,12,13,14,15,16,17,18,19,20,21,22,23,24,25,26,27,28,29,30,31,32,33,34,35,36,37,38,39,40,41,42,43,44,45,46,47,48,49,50,51,52,53,54,55,56,57,58,59,60,61,62,63,64,65,66,67,68,69,70,71,72,73,74,75,76,77,78,79,80,81,82,83,84,85,86,87,88,89,90,91,92,93,94,95,96,97,98,99,100,101,102,103,104,105,106,107,108,109,110,111,112,113,114,115,116,117,118,119,120,121,122,123,124,125,126,127,128,129,130,131,132,133,134,135,136,137,138,139,140,141,142,143,144,145,146,147,148,149,150,151,152,153,154,155,156,157,158,159,160,161,162,163,164,165,166,167,168,169,170,171,172,173,174,175,176,177,178,179,180,181,182,183,184,185,186,187,188,189,190,191,192,193,194,195,196,197,198,199,200,201,202,203,204,205,206,207,208,209,210,211,212,213,214,215,216,217,218,219,220,221,222,223,224,225,226,227,228,229,230,231,232,233,234,235,236,237,238,239,240,241,242,243,244,245,246,247,248,249,250,251,252,253,254,255,256,257,258,259,260,261,262,263,264,265,266,267,268,269,270,271,272,273,274,275,276,277,278,279,280,281,282,283,284,285,286,287,288,289,290,291,292,293,294,295,296,297,298,299,300,301,302,303,304,305,306,307,308,309,310,311,312,313,314,315,316,317,318,319,320,321,322,323,324,325,326,327,328,329,330,331,332,333,334,335,336,337,338,339,340,341,342,343,344,345,346,347,348,349,350,351,352,353,354,355,356,357,358,359,360,361,362,363,364,365,366,367,368,369,370,371,372,373,374,375,376,377,378,379,380,381,382,383,384,385,386,387,388,389,390,391,392,393,394,395,396,397,398,399,400,401,402,403,404,405,406,407,408,409,410,411,412,413,414,415,416,417,418,419,420,421,422,423,424,425,426,427,428,429,430,431,432,433,434,435,436,437,438,439,440,441,442,443,444,445,446,447,448,449,450,451,452,453,454,455,456,457,458,459,460,461,462,463,464,465,466,467,468,469,470,471,472,473,474,475,476,477,478,479,480,481,482,483,484,485,486,487,488,489,490,491,492,493,494,495,496,497,498,499,500],"tree_info":[0,0,0,0,0,0,0,0,0,0,0,0,0,0,0,0,0,0,0,0,0,0,0,0,0,0,0,0,0,0,0,0,0,0,0,0,0,0,0,0,0,0,0,0,0,0,0,0,0,0,0,0,0,0,0,0,0,0,0,0,0,0,0,0,0,0,0,0,0,0,0,0,0,0,0,0,0,0,0,0,0,0,0,0,0,0,0,0,0,0,0,0,0,0,0,0,0,0,0,0,0,0,0,0,0,0,0,0,0,0,0,0,0,0,0,0,0,0,0,0,0,0,0,0,0,0,0,0,0,0,0,0,0,0,0,0,0,0,0,0,0,0,0,0,0,0,0,0,0,0,0,0,0,0,0,0,0,0,0,0,0,0,0,0,0,0,0,0,0,0,0,0,0,0,0,0,0,0,0,0,0,0,0,0,0,0,0,0,0,0,0,0,0,0,0,0,0,0,0,0,0,0,0,0,0,0,0,0,0,0,0,0,0,0,0,0,0,0,0,0,0,0,0,0,0,0,0,0,0,0,0,0,0,0,0,0,0,0,0,0,0,0,0,0,0,0,0,0,0,0,0,0,0,0,0,0,0,0,0,0,0,0,0,0,0,0,0,0,0,0,0,0,0,0,0,0,0,0,0,0,0,0,0,0,0,0,0,0,0,0,0,0,0,0,0,0,0,0,0,0,0,0,0,0,0,0,0,0,0,0,0,0,0,0,0,0,0,0,0,0,0,0,0,0,0,0,0,0,0,0,0,0,0,0,0,0,0,0,0,0,0,0,0,0,0,0,0,0,0,0,0,0,0,0,0,0,0,0,0,0,0,0,0,0,0,0,0,0,0,0,0,0,0,0,0,0,0,0,0,0,0,0,0,0,0,0,0,0,0,0,0,0,0,0,0,0,0,0,0,0,0,0,0,0,0,0,0,0,0,0,0,0,0,0,0,0,0,0,0,0,0,0,0,0,0,0,0,0,0,0,0,0,0,0,0,0,0,0,0,0,0,0,0,0,0,0,0,0,0,0,0,0,0,0,0,0,0,0,0,0,0,0,0,0,0,0,0,0,0,0,0,0,0,0,0,0,0,0,0,0,0,0,0,0,0,0,0,0,0,0,0,0,0,0,0,0,0,0,0,0],"trees":[{"base_weights":[2.0826873E-3,3.5445097E-1,-7.47979E-1,9.9725045E-2,1.1207963E0,-9.244115E-1,-1.6765104E-1,3.9987102E-1,-2.2142546E-1,8.3171314E-1,1.5541701E0,-1.1016979E0,-7.84799E-1,-3.0079013E-1,6.7362785E-1,1.1333115E-2,6.1202186E-1,-4.2381874E-1,-0E0,1.1593086E0,5.489615E-1,1.386487E0,1.9233236E0,-1.744067E-1,-1.1109078E0,-8.6994094E-1,-6.8770987E-1,-3.8011438E-1,-0E0,7.276303E-1,-1.7071493E-3,4.741916E-1,-1.3136104E-1,9.782585E-1,4.263908E-1,-5.604199E-1,-2.8167596E-1,4.591313E-1,-1.0755558E-1,1.4353162E0,8.844679E-1,5.950831E-1,9.930034E-2,1.1712536E0,1.6924331E0,1.9330896E-1,4.7598183E-3,1.0132826E-2,-2.9790616E-2,-3.8487393E-1,-1.11838795E-1,-3.926287E-1,-8.8650964E-2,-0E0,-6.923229E-1,2.835969E-2,-3.9003918E-1,1.5205663E-1,-1.2522353E-1,2.6284788E-2,8.435419E-2,9.880301E-3,6.042249E-2,1.728667E-3,-4.1547522E-2,4.1292813E-2,1.1281288E-1,7.058571E-2,2.593649E-2,-7.120522E-2,-3.7870858E-2,-1.2225076E-2,-5.0338984E-2,-6.2855384E-3,5.2185018E-2,4.056386E-3,-2.2742324E-2,1.4437924E-1,-0E0,6.112871E-3,9.274934E-2,6.875082E-2,3.8183738E-2,1.9999856E-2,-4.7475514E-3,-0E0,1.1743375E-1,1.7052686E-1,-2.2446436E-3,1.1318992E-2,-4.7556233E-2,-4.884405E-2,1.7886674E-2,-3.4919284E-2,-7.108321E-2,-1.5193603E-2,-4.3098904E-2,2.3880761E-2,-0E0,9.658113E-3,-2.9373456E-2],"categories":[],"categories_nodes":[],"categories_segments":[],"categories_sizes":[],"default_left":[0,0,0,0,0,0,0,0,0,0,0,0,0,0,0,0,0,0,0,0,0,0,0,0,0,0,0,0,0,0,0,0,0,0,0,0,0,0,0,0,0,0,0,0,0,0,0,0,0,0,0,0,0,0,0,0,0,0,0,0,0,0,0,0,0,0,0,0,0,0,0,0,0,0,0,0,0,0,0,0,0,0,0,0,0,0,0,0,0,0,0,0,0,0,0,0,0,0,0,0,0],"id":0,"left_children":[1,3,5,7,9,11,13,15,17,19,21,23,25,27,29,31,33,35,37,39,41,43,45,47,49,51,53,55,57,59,-1,61,63,65,67,69,71,73,75,77,79,81,83,85,87,-1,-1,-1,-1,89,-1,91,-1,-1,93,-1,95,97,99,-1,-1,-1,-1,-1,-1,-1,-1,-1,-1,-1,-1,-1,-1,-1,-1,-1,-1,-1,-1,-1,-1,-1,-1,-1,-1,-1,-1,-1,-1,-1,-1,-1,-1,-1,-1,-1,-1,-1,-1,-1,-1],"loss_changes":[3.3252761E3,1.6690328E3,4.09063E2,6.2163574E2,2.520376E2,6.5701904E1,1.0817213E2,2.7404193E2,1.3987871E2,1.1262207E2,2.2082031E1,8.127075E0,7.0167236E0,2.0068878E1,5.7583084E0,7.949585E1,1.4086359E2,2.9209412E1,7.4601685E1,2.9969177E1,1.3646881E1,1.7877075E1,1.4039307E0,1.383822E0,1.3232422E0,2.3182373E0,3.1802673E0,5.546959E0,3.6572437E0,3.3567123E0,0E0,1.2562881E1,3.911313E1,5.437982E1,6.484061E1,1.8723694E1,2.781401E1,1.018293E1,2.1922127E1,2.6152344E0,9.957382E0,9.096771E0,1.4446589E0,1.4854736E0,7.128235E0,0E0,0E0,0E0,0E0,2.2557187E0,0E0,3.921031E0,0E0,0E0,1.989563E0,0E0,5.1389313E0,1.3639557E0,4.2932515E0,0E0,0E0,0E0,0E0,0E0,0E0,0E0,0E0,0E0,0E0,0E0,0E0,0E0,0E0,0E0,0E0,0E0,0E0,0E0,0E0,0E0,0E0,0E0,0E0,0E0,0E0,0E0,0E0,0E0,0E0,0E0,0E0,0E0,0E0,0E0,0E0,0E0,0E0,0E0,0E0,0E0,0E0],"parents":[2147483647,0,0,1,1,2,2,3,3,4,4,5,5,6,6,7,7,8,8,9,9,10,10,11,11,12,12,13,13,14,14,15,15,16,16,17,17,18,18,19,19,20,20,21,21,22,22,23,23,24,24,25,25,26,26,27,27,28,28,29,29,31,31,32,32,33,33,34,34,35,35,36,36,37,37,38,38,39,39,40,40,41,41,42,42,43,43,44,44,49,49,51,51,54,54,56,56,57,57,58,58],"right_children":[2,4,6,8,10,12,14,16,18,20,22,24,26,28,30,32,34,36,38,40,42,44,46,48,50,52,54,56,58,60,-1,62,64,66,68,70,72,74,76,78,80,82,84,86,88,-1,-1,-1,-1,90,-1,92,-1,-1,94,-1,96,98,100,-1,-1,-1,-1,-1,-1,-1,-1,-1,-1,-1,-1,-1,-1,-1,-1,-1,-1,-1,-1,-1,-1,-1,-1,-1,-1,-1,-1,-1,-1,-1,-1,-1,-1,-1,-1,-1,-1,-1,-1,-1,-1],"split_conditions":[-8.383E1,2.2125325E0,1.9820696E0,1.0492439E0,2.4753585E0,1.5411035E0,2.4753585E0,1.742326E0,1.767767E0,1.021294E0,2.756447E0,1.7383966E-1,1.7535678E0,2.2831557E0,1.723193E-1,-8.447E1,-8.446E1,3.403E1,-8.454E1,-8.441E1,-1.1719E2,2.7E1,1.6237677E0,7.889925E-1,8E0,7.110013E-1,1.4839491E-1,1.3876788E-1,-8.335E1,2.5390549E0,-1.7071493E-3,2.3214285E-1,3.444E1,2.1E1,8.385756E-1,1.4976982E0,3.45E1,-8.542E1,1.1790195E0,2.6848486E-1,3.284E1,1.1964101E0,1.2057569E0,5.2087206E-1,1.874363E0,1.9330896E-1,4.7598183E-3,1.0132826E-2,-2.9790616E-2,1.8979514E-1,-1.11838795E-1,-1.1697E2,-8.8650964E-2,-0E0,7.950316E-1,2.835969E-2,-8.363E1,3.416E1,-1.2071E2,2.6284788E-2,8.435419E-2,9.880301E-3,6.042249E-2,1.728667E-3,-4.1547522E-2,4.1292813E-2,1.1281288E-1,7.058571E-2,2.593649E-2,-7.120522E-2,-3.7870858E-2,-1.2225076E-2,-5.0338984E-2,-6.2855384E-3,5.2185018E-2,4.056386E-3,-2.2742324E-2,1.4437924E-1,-0E0,6.112871E-3,9.274934E-2,6.875082E-2,3.8183738E-2,1.9999856E-2,-4.7475514E-3,-0E0,1.1743375E-1,1.7052686E-1,-2.2446436E-3,1.1318992E-2,-4.7556233E-2,-4.884405E-2,1.7886674E-2,-3.4919284E-2,-7.108321E-2,-1.5193603E-2,-4.3098904E-2,2.3880761E-2,-0E0,9.658113E-3,-2.9373456E-2],"split_indices":[4,0,0,1,0,0,0,0,0,1,0,5,0,0,5,4,4,2,4,4,3,6,1,1,6,1,5,5,4,0,0,5,2,6,1,0,2,4,1,5,2,1,1,1,1,0,0,0,0,5,0,3,0,0,1,0,4,2,3,0,0,0,0,0,0,0,0,0,0,0,0,0,0,0,0,0,0,0,0,0,0,0,0,0,0,0,0,0,0,0,0,0,0,0,0,0,0,0,0,0,0],"split_type":[0,0,0,0,0,0,0,0,0,0,0,0,0,0,0,0,0,0,0,0,0,0,0,0,0,0,0,0,0,0,0,0,0,0,0,0,0,0,0,0,0,0,0,0,0,0,0,0,0,0,0,0,0,0,0,0,0,0,0,0,0,0,0,0,0,0,0,0,0,0,0,0,0,0,0,0,0,0,0,0,0,0,0,0,0,0,0,0,0,0,0,0,0,0,0,0,0,0,0,0,0],"sum_hessian":[1.2563E4,8.552E3,4.011E3,6.428E3,2.124E3,3.07E3,9.41E2,3.323E3,3.105E3,1.293E3,8.31E2,1.319E3,1.751E3,8.19E2,1.22E2,1.179E3,2.144E3,1.619E3,1.486E3,5.83E2,7.1E2,6.06E2,2.25E2,1.6E1,1.303E3,8.85E2,8.66E2,6.48E2,1.71E2,1.14E2,8E0,2.74E2,9.05E2,7.05E2,1.439E3,8.07E2,8.12E2,2.77E2,1.209E3,2.68E2,3.15E2,6.39E2,7.1E1,3.86E2,2.2E2,2.23E2,2E0,3E0,1.3E1,2E1,1.283E3,4E1,8.45E2,5E0,8.61E2,4E0,6.44E2,7.9E1,9.2E1,3.1E1,8.3E1,7.7E1,1.97E2,5.98E2,3.07E2,1.57E2,5.48E2,5.24E2,9.15E2,4.21E2,3.86E2,4.84E2,3.28E2,2.8E1,2.49E2,5.4E2,6.69E2,2.66E2,2E0,1.8E1,2.97E2,4.27E2,2.12E2,4.4E1,2.7E1,1E0,3.85E2,2.19E2,1E0,1E0,1.9E1,3.7E1,3E0,5.7E1,8.04E2,1.05E2,5.39E2,5E1,2.9E1,3.9E1,5.3E1],"tree_param":{"num_deleted":"0","num_feature":"7","num_nodes":"101","size_leaf_vector":"1"}},{"base_weights":[-2.7536703E-3,3.1726754E-1,-6.73812E-1,6.628499E-2,9.528104E-1,-8.197595E-1,-9.631069E-2,4.1434443E-1,-1.5640908E-1,6.6853166E-1,1.3320243E0,-9.277938E-1,-6.12626E-1,-2.0382343E-1,7.62255E-1,-1.6352119E-3,5.926251E-1,-3.901607E-1,1.9630747E-2,8.966008E-1,3.3736852E-1,1.1043259E0,1.5698416E0,-1.0280905E0,-8.3441484E-1,9.908113E-3,-6.20004E-1,-2.8660837E-1,5.9540667E-2,7.9986356E-2,-1.043162E-3,4.599267E-1,-1.4257126E-1,1.5059227E-1,7.2024703E-1,-4.4290254E-1,-4.9417295E-2,4.0748167E-1,-7.296427E-2,1.1229303E0,6.2668407E-1,2.1453984E-1,4.97493E-1,1.3443872E0,7.1188444E-1,1.5757793E0,-2.2242395E-3,-0E0,-1.0371383E0,-0E0,-8.363953E-1,-3.198501E-1,-6.3663566E-1,-1.1225465E-1,-3.4970683E-1,2.1653038E-1,-4.3886874E-2,-2.326723E-3,5.5506956E-2,-3.3078555E-3,-3.802304E-2,2.7481511E-2,-9.4746234E-4,8.033987E-2,-0E0,-5.7376187E-2,-2.6590416E-2,1.7560078E-2,-2.5025988E-2,1.1544424E-2,5.8091182E-2,5.559316E-3,-2.0361047E-2,-0E0,1.13428526E-1,6.612509E-2,1.1152699E-2,2.633356E-2,-1.1578126E-2,5.2499007E-2,9.210055E-3,1.5272292E-1,9.3229435E-2,7.2533436E-2,1.1954509E-3,1.5784436E-1,-0E0,-1.3656045E-2,-1.0431611E-1,-0E0,-8.37717E-2,-4.9970195E-2,-4.481667E-3,-7.151739E-2,-5.448679E-2,2.0455E-2,-1.5960127E-2,-4.5702394E-2,-1.6800938E-2,3.17423E-2,-3.2395788E-3,-1.970806E-2,1.7774496E-2],"categories":[],"categories_nodes":[],"categories_segments":[],"categories_sizes":[],"default_left":[0,0,0,0,0,0,0,0,0,0,0,0,0,0,0,0,0,0,0,0,0,0,0,0,0,0,0,0,0,0,0,0,0,0,0,0,0,0,0,0,0,0,0,0,0,0,0,0,0,0,0,0,0,0,0,0,0,0,0,0,0,0,0,0,0,0,0,0,0,0,0,0,0,0,0,0,0,0,0,0,0,0,0,0,0,0,0,0,0,0,0,0,0,0,0,0,0,0,0,0,0,0,0],"id":1,"left_children":[1,3,5,7,9,11,13,15,17,19,21,23,25,27,29,31,33,35,37,39,41,43,45,47,49,-1,51,53,55,-1,-1,57,59,61,63,65,67,69,71,73,75,77,79,81,83,85,-1,-1,87,-1,89,91,93,95,97,99,101,-1,-1,-1,-1,-1,-1,-1,-1,-1,-1,-1,-1,-1,-1,-1,-1,-1,-1,-1,-1,-1,-1,-1,-1,-1,-1,-1,-1,-1,-1,-1,-1,-1,-1,-1,-1,-1,-1,-1,-1,-1,-1,-1,-1,-1,-1],"loss_changes":[2.710528E3,1.3612041E3,3.4183984E2,4.7658966E2,2.4965308E2,6.55249E1,7.8071365E1,1.7851318E2,1.5467581E2,1.0170709E2,3.543982E1,9.357788E0,7.158081E0,1.6771454E1,3.604473E0,4.7695286E1,9.2875E1,2.8276749E1,7.766536E1,4.1490295E1,9.824699E0,4.103656E1,6.3945312E0,8.463257E0,1.7167358E0,0E0,2.688202E0,5.4823074E0,3.2715285E0,0E0,0E0,8.52224E0,1.4215358E1,8.066009E0,7.756598E1,2.989917E1,1.0908555E1,1.9753273E1,2.9451859E1,5.951599E0,5.612686E0,6.174429E0,1.6304321E0,8.468384E0,1.388298E0,1.4919434E0,0E0,0E0,2.6135254E0,0E0,1.1409302E0,3.3371487E0,2.518982E0,2.861452E0,6.6798134E0,2.3719282E0,4.308139E0,0E0,0E0,0E0,0E0,0E0,0E0,0E0,0E0,0E0,0E0,0E0,0E0,0E0,0E0,0E0,0E0,0E0,0E0,0E0,0E0,0E0,0E0,0E0,0E0,0E0,0E0,0E0,0E0,0E0,0E0,0E0,0E0,0E0,0E0,0E0,0E0,0E0,0E0,0E0,0E0,0E0,0E0,0E0,0E0,0E0,0E0],"parents":[2147483647,0,0,1,1,2,2,3,3,4,4,5,5,6,6,7,7,8,8,9,9,10,10,11,11,12,12,13,13,14,14,15,15,16,16,17,17,18,18,19,19,20,20,21,21,22,22,23,23,24,24,26,26,27,27,28,28,31,31,32,32,33,33,34,34,35,35,36,36,37,37,38,38,39,39,40,40,41,41,42,42,43,43,44,44,45,45,48,48,50,50,51,51,52,52,53,53,54,54,55,55,56,56],"right_children":[2,4,6,8,10,12,14,16,18,20,22,24,26,28,30,32,34,36,38,40,42,44,46,48,50,-1,52,54,56,-1,-1,58,60,62,64,66,68,70,72,74,76,78,80,82,84,86,-1,-1,88,-1,90,92,94,96,98,100,102,-1,-1,-1,-1,-1,-1,-1,-1,-1,-1,-1,-1,-1,-1,-1,-1,-1,-1,-1,-1,-1,-1,-1,-1,-1,-1,-1,-1,-1,-1,-1,-1,-1,-1,-1,-1,-1,-1,-1,-1,-1,-1,-1,-1,-1,-1],"split_conditions":[-8.383E1,2.1640933E0,2.017771E0,9.559738E-1,2.4190495E0,1.7283229E0,2.5390549E0,1.6753507E0,1.6989409E0,1.0730109E0,2.585208E0,1.4577379E0,1.4839491E-1,2.302303E0,1.7336683E-1,-8.448E1,2E1,3.2733813E-1,-8.454E1,-8.437E1,2.308831E0,1.1021584E0,1.874363E0,1.7470805E-1,1.6274378E-1,9.908113E-3,-8.373E1,-8.35E1,3.417E1,7.9986356E-2,-1.043162E-3,1.9E1,3.777E1,-8.423E1,3.792E1,1.5363268E0,1.2245841E0,-8.482E1,1.139258E0,-8.555E1,-1.1717E2,-1.1768E2,-1.1719E2,-8.425E1,1.9020715E-1,3.831E1,-2.2242395E-3,-0E0,4.1985384E-1,-0E0,4E0,-1.1791E2,3.745E1,3.383E1,3.815E1,-8.339E1,3.838E1,-2.326723E-3,5.5506956E-2,-3.3078555E-3,-3.802304E-2,2.7481511E-2,-9.4746234E-4,8.033987E-2,-0E0,-5.7376187E-2,-2.6590416E-2,1.7560078E-2,-2.5025988E-2,1.1544424E-2,5.8091182E-2,5.559316E-3,-2.0361047E-2,-0E0,1.13428526E-1,6.612509E-2,1.1152699E-2,2.633356E-2,-1.1578126E-2,5.2499007E-2,9.210055E-3,1.5272292E-1,9.3229435E-2,7.2533436E-2,1.1954509E-3,1.5784436E-1,-0E0,-1.3656045E-2,-1.0431611E-1,-0E0,-8.37717E-2,-4.9970195E-2,-4.481667E-3,-7.151739E-2,-5.448679E-2,2.0455E-2,-1.5960127E-2,-4.5702394E-2,-1.6800938E-2,3.17423E-2,-3.2395788E-3,-1.970806E-2,1.7774496E-2],"split_indices":[4,0,0,1,0,0,0,0,0,1,0,0,5,0,5,4,6,5,4,4,0,1,1,5,5,0,4,4,2,0,0,6,2,4,2,0,1,4,1,4,3,3,3,4,5,2,0,0,1,0,6,3,2,2,2,4,2,0,0,0,0,0,0,0,0,0,0,0,0,0,0,0,0,0,0,0,0,0,0,0,0,0,0,0,0,0,0,0,0,0,0,0,0,0,0,0,0,0,0,0,0,0,0],"split_type":[0,0,0,0,0,0,0,0,0,0,0,0,0,0,0,0,0,0,0,0,0,0,0,0,0,0,0,0,0,0,0,0,0,0,0,0,0,0,0,0,0,0,0,0,0,0,0,0,0,0,0,0,0,0,0,0,0,0,0,0,0,0,0,0,0,0,0,0,0,0,0,0,0,0,0,0,0,0,0,0,0,0,0,0,0,0,0,0,0,0,0,0,0,0,0,0,0,0,0,0,0,0,0],"sum_hessian":[1.26E4,8.534E3,4.066E3,6.127E3,2.407E3,3.241E3,8.25E2,2.389E3,3.738E3,1.393E3,1.014E3,2.104E3,1.137E3,7.41E2,8.4E1,7.18E2,1.671E3,1.603E3,2.135E3,8.13E2,5.8E2,5.49E2,4.65E2,9.61E2,1.143E3,9E0,1.128E3,5.66E2,1.75E2,8.1E1,3E0,1.61E2,5.57E2,3.81E2,1.29E3,1.383E3,2.2E2,4.07E2,1.728E3,4.23E2,3.9E2,3.45E2,2.35E2,3.24E2,2.25E2,4.64E2,1E0,9E0,9.52E2,3E0,1.14E3,7.3E1,1.055E3,1.62E2,4.04E2,6.9E1,1.06E2,2.6E1,1.35E2,3.92E2,1.65E2,2.14E2,1.67E2,1.155E3,1.35E2,7.79E2,6.04E2,1.02E2,1.18E2,1.6E2,2.47E2,8.7E2,8.58E2,4E0,4.19E2,3.61E2,2.9E1,3.05E2,4E1,2.15E2,2E1,2.04E2,1.2E2,2.19E2,6E0,4.63E2,1E0,9E0,9.43E2,2E0,1.138E3,3.7E1,3.6E1,5.26E2,5.29E2,1.4E1,1.48E2,2.41E2,1.63E2,5E1,1.9E1,6.6E1,4E1],"tree_param":{"num_deleted":"0","num_feature":"7","num_nodes":"103","size_leaf_vector":"1"}},{"base_weights":[-2.0995615E-3,2.8133446E-1,-6.258876E-1,-2.560234E-2,7.120535E-1,-7.5920165E-1,-1.6956195E-1,3.1815922E-1,-2.0291266E-1,5.063563E-1,1.2184733E0,-8.788789E-1,-6.338417E-1,-2.9070556E-1,3.6442077E-1,7.36745E-2,5.325873E-1,1.4090262E-1,-2.6643535E-1,7.171307E-1,2.073686E-1,1.0557736E0,1.5039916E0,-3.4278208E-1,-8.935866E-1,-2.5347278E-1,-6.4375615E-1,-3.9559788E-1,-1.3814285E-1,1.0455902E-1,5.2846676E-1,4.307964E-1,-6.269682E-2,1.8231837E-1,7.059646E-1,4.3212244E-1,-4.4776052E-2,-4.0440196E-1,-1.3864715E-1,1.0159866E0,5.531497E-1,5.2118665E-1,1.1134009E-1,1.2441922E0,7.397683E-2,1.51759E0,-0E0,-3.7733193E-2,-0E0,-2.5936976E-1,-9.01985E-1,7.6244897E-3,-3.4147657E-2,-3.8526054E-2,-6.627227E-1,2.6286477E-2,-4.0860027E-1,8.271915E-4,-2.1029162E-1,2.379437E-2,-0E0,5.768211E-1,-0E0,1.2961957E-4,5.5925976E-2,1.4164313E-3,-4.3811098E-2,2.5396584E-2,-7.225875E-3,1.04513146E-1,4.5660555E-2,4.588839E-2,-0E0,2.8640255E-3,-3.1154353E-2,-5.7282347E-2,-2.1773089E-2,-3.839546E-3,-2.570614E-2,4.2706624E-2,1.10281326E-1,8.378553E-2,4.128723E-2,-1.2363665E-3,5.828187E-2,2.5559652E-3,2.9064113E-2,1.267995E-1,2.3855818E-2,4.1635634E-4,1.5233277E-1,1.1977651E-2,-3.3516128E-2,-5.491324E-4,-9.049589E-2,-4.9481593E-2,-6.98103E-2,-3.9531966E-3,-4.259857E-2,6.046351E-3,-2.8819341E-2,-1.4644598E-2,1.6001295E-2,6.2732E-2,6.2148585E-3],"categories":[],"categories_nodes":[],"categories_segments":[],"categories_sizes":[],"default_left":[0,0,0,0,0,0,0,0,0,0,0,0,0,0,0,0,0,0,0,0,0,0,0,0,0,0,0,0,0,0,0,0,0,0,0,0,0,0,0,0,0,0,0,0,0,0,0,0,0,0,0,0,0,0,0,0,0,0,0,0,0,0,0,0,0,0,0,0,0,0,0,0,0,0,0,0,0,0,0,0,0,0,0,0,0,0,0,0,0,0,0,0,0,0,0,0,0,0,0,0,0,0,0,0,0],"id":2,"left_children":[1,3,5,7,9,11,13,15,17,19,21,23,25,27,29,31,33,35,37,39,41,43,45,47,49,51,53,55,57,59,61,63,65,67,69,71,73,75,77,79,81,83,85,87,-1,89,-1,-1,-1,91,93,-1,-1,-1,95,-1,97,-1,99,-1,101,103,-1,-1,-1,-1,-1,-1,-1,-1,-1,-1,-1,-1,-1,-1,-1,-1,-1,-1,-1,-1,-1,-1,-1,-1,-1,-1,-1,-1,-1,-1,-1,-1,-1,-1,-1,-1,-1,-1,-1,-1,-1,-1,-1],"loss_changes":[2.2384834E3,1.1514362E3,2.3844568E2,3.107784E2,3.6951013E2,3.8779907E1,5.9787613E1,8.990524E1,7.401466E1,1.6112256E2,2.978064E1,7.7957764E0,3.2521973E0,1.0889751E1,6.104019E0,4.0767975E1,5.3695007E1,2.9185612E1,4.90903E1,6.71051E1,3.1604717E1,3.0312195E1,7.5128174E0,1.040771E0,4.4089355E0,2.208542E0,3.6793823E0,4.9355392E0,3.6420355E0,1.0960624E0,2.3500443E0,1.2177628E1,1.7885422E1,6.2019577E0,4.5316498E1,2.6672134E0,6.835207E0,4.0719864E1,1.7377073E1,2.0503418E1,3.5347565E1,8.863464E0,1.2667574E1,5.5220337E0,0E0,1.4309082E0,0E0,0E0,0E0,1.6225913E0,2.932373E0,0E0,0E0,0E0,3.4676514E0,0E0,2.1315536E0,0E0,5.0844746E0,0E0,1.5485109E0,1.2857876E0,0E0,0E0,0E0,0E0,0E0,0E0,0E0,0E0,0E0,0E0,0E0,0E0,0E0,0E0,0E0,0E0,0E0,0E0,0E0,0E0,0E0,0E0,0E0,0E0,0E0,0E0,0E0,0E0,0E0,0E0,0E0,0E0,0E0,0E0,0E0,0E0,0E0,0E0,0E0,0E0,0E0,0E0,0E0],"parents":[2147483647,0,0,1,1,2,2,3,3,4,4,5,5,6,6,7,7,8,8,9,9,10,10,11,11,12,12,13,13,14,14,15,15,16,16,17,17,18,18,19,19,20,20,21,21,22,22,23,23,24,24,25,25,26,26,27,27,28,28,29,29,30,30,31,31,32,32,33,33,34,34,35,35,36,36,37,37,38,38,39,39,40,40,41,41,42,42,43,43,45,45,49,49,50,50,54,54,56,56,58,58,60,60,61,61],"right_children":[2,4,6,8,10,12,14,16,18,20,22,24,26,28,30,32,34,36,38,40,42,44,46,48,50,52,54,56,58,60,62,64,66,68,70,72,74,76,78,80,82,84,86,88,-1,90,-1,-1,-1,92,94,-1,-1,-1,96,-1,98,-1,100,-1,102,104,-1,-1,-1,-1,-1,-1,-1,-1,-1,-1,-1,-1,-1,-1,-1,-1,-1,-1,-1,-1,-1,-1,-1,-1,-1,-1,-1,-1,-1,-1,-1,-1,-1,-1,-1,-1,-1,-1,-1,-1,-1,-1,-1],"split_conditions":[-8.378E1,2.017771E0,1.9874607E0,9.204392E-1,2.4190495E0,1.5937691E0,2.3960383E0,1.7360587E0,-8.452E1,1.0687593E0,2.6569154E0,6.091322E-1,1.6396761E-1,2.1532767E0,2.5088644E0,-8.445E1,2.5E1,-1.2193E2,1.6542672E0,-8.447E1,-8.452E1,1.1021584E0,2.250567E-1,-8.183E1,8E0,1.2E1,7.950316E-1,1.4139111E-1,-8.347E1,-8.343E1,1.5384616E-1,2.327081E-1,-1.1714E2,-8.414E1,7.525706E-1,3.7617555E-1,1.3659598E0,-8.426E1,1.1624995E0,1.7E1,8.663234E-1,-8.542E1,2.2756977E0,3.799E1,7.397683E-2,4.921085E-1,-0E0,-3.7733193E-2,-0E0,1.8979514E-1,1.5851119E-1,7.6244897E-3,-3.4147657E-2,-3.8526054E-2,-8.347E1,2.6286477E-2,3.382E1,8.271915E-4,9.678781E-1,2.379437E-2,3.842E1,-1.174E2,-0E0,1.2961957E-4,5.5925976E-2,1.4164313E-3,-4.3811098E-2,2.5396584E-2,-7.225875E-3,1.04513146E-1,4.5660555E-2,4.588839E-2,-0E0,2.8640255E-3,-3.1154353E-2,-5.7282347E-2,-2.1773089E-2,-3.839546E-3,-2.570614E-2,4.2706624E-2,1.10281326E-1,8.378553E-2,4.128723E-2,-1.2363665E-3,5.828187E-2,2.5559652E-3,2.9064113E-2,1.267995E-1,2.3855818E-2,4.1635634E-4,1.5233277E-1,1.1977651E-2,-3.3516128E-2,-5.491324E-4,-9.049589E-2,-4.9481593E-2,-6.98103E-2,-3.9531966E-3,-4.259857E-2,6.046351E-3,-2.8819341E-2,-1.4644598E-2,1.6001295E-2,6.2732E-2,6.2148585E-3],"split_indices":[4,0,0,1,0,0,0,0,4,1,0,1,5,0,0,4,6,3,0,4,4,1,5,4,6,6,1,5,4,4,5,5,3,4,1,5,1,4,1,6,1,4,0,2,0,1,0,0,0,5,5,0,0,0,4,0,2,0,1,0,2,3,0,0,0,0,0,0,0,0,0,0,0,0,0,0,0,0,0,0,0,0,0,0,0,0,0,0,0,0,0,0,0,0,0,0,0,0,0,0,0,0,0,0,0],"split_type":[0,0,0,0,0,0,0,0,0,0,0,0,0,0,0,0,0,0,0,0,0,0,0,0,0,0,0,0,0,0,0,0,0,0,0,0,0,0,0,0,0,0,0,0,0,0,0,0,0,0,0,0,0,0,0,0,0,0,0,0,0,0,0,0,0,0,0,0,0,0,0,0,0,0,0,0,0,0,0,0,0,0,0,0,0,0,0,0,0,0,0,0,0,0,0,0,0,0,0,0,0,0,0,0,0],"sum_hessian":[1.2639E4,8.693E3,3.946E3,5.08E3,3.613E3,3.047E3,8.99E2,1.724E3,3.356E3,2.585E3,1.028E3,1.524E3,1.523E3,7.38E2,1.61E2,8.14E2,9.1E2,5.19E2,2.837E3,1.506E3,1.079E3,6.87E2,3.41E2,4.9E1,1.475E3,4.8E1,1.475E3,4.24E2,3.14E2,7.1E1,9E1,2.21E2,5.93E2,3.1E2,6E2,1.99E2,3.2E2,1.35E3,1.487E3,5.13E2,9.93E2,2.4E2,8.39E2,4.1E2,2.77E2,3.38E2,3E0,4.6E1,3E0,2.5E1,1.45E3,8E0,4E1,1.19E2,1.356E3,3E0,4.21E2,1.02E2,2.12E2,2.5E1,4.6E1,8.1E1,9E0,5.5E1,1.66E2,4.98E2,9.5E1,2.45E2,6.5E1,2.39E2,3.61E2,1.88E2,1.1E1,2.55E2,6.5E1,6.96E2,6.54E2,8.17E2,6.7E2,7.5E1,4.38E2,3.09E2,6.84E2,2.4E1,2.16E2,5.79E2,2.6E2,3.97E2,1.3E1,2E0,3.36E2,1E0,2.4E1,6E0,1.444E3,2.67E2,1.089E3,2.3E1,3.98E2,4.5E1,1.67E2,2.4E1,2.2E1,7E1,1.1E1],"tree_param":{"num_deleted":"0","num_feature":"7","num_nodes":"105","size_leaf_vector":"1"}},{"base_weights":[1.987632E-3,2.5888193E-1,-5.586981E-1,3.6260862E-2,7.56515E-1,-6.8612415E-1,-1.2782684E-1,3.451197E-1,-1.4311342E-1,5.3102696E-1,1.1078602E0,-7.699754E-1,-5.235986E-1,-2.4125549E-1,3.8628402E-1,6.7183816E-1,1.8283184E-1,-3.077866E-1,3.3095703E-2,7.212949E-1,2.6216066E-1,1.2634907E0,8.943265E-1,-8.516831E-1,-6.92767E-1,-0E0,-5.28695E-1,-3.3943838E-1,-1.05961494E-1,1.72608E-1,6.3332313E-1,1.0837147E0,4.6032584E-1,-4.663307E-2,3.9157745E-1,-1.8359922E-2,-3.5169613E-1,3.3283576E-1,-3.6583427E-2,9.8939383E-1,5.632431E-1,4.8991424E-1,1.767956E-1,1.2844784E0,3.2863226E-2,6.61766E-1,1.1802984E0,-8.5937417E-1,-2.78218E-3,-1.2649446E-3,-6.9615096E-2,-2.6423773E-1,-5.453512E-1,3.067987E-2,-3.534727E-1,5.111663E-2,-1.7545421E-1,2.999127E-2,-0E0,6.860428E-2,-3.68871E-4,1.1832356E-1,-0E0,2.8317858E-2,7.226971E-2,1.8077105E-3,-3.9451893E-2,5.3937048E-2,-1.3476637E-3,-1.4931737E-2,2.6106445E-2,-5.052817E-2,-2.091085E-2,7.476885E-3,4.9061738E-2,9.065331E-3,-1.4323075E-2,1.483773E-2,1.0126611E-1,2.7155612E-2,6.456108E-2,-0E0,5.245886E-2,9.978422E-3,3.0877972E-2,1.323558E-1,6.0662765E-2,6.715506E-2,-3.7127812E-3,1.1926594E-1,-2.2040193E-3,-0E0,-8.652454E-2,-0E0,-3.1370234E-2,-6.1412156E-2,-4.5962296E-2,-3.6627047E-2,-4.122421E-4,1.4028489E-2,-1.2846787E-2,-9.326488E-4,-3.0435313E-2,-2.0154752E-2,2.0790135E-2],"categories":[],"categories_nodes":[],"categories_segments":[],"categories_sizes":[],"default_left":[0,0,0,0,0,0,0,0,0,0,0,0,0,0,0,0,0,0,0,0,0,0,0,0,0,0,0,0,0,0,0,0,0,0,0,0,0,0,0,0,0,0,0,0,0,0,0,0,0,0,0,0,0,0,0,0,0,0,0,0,0,0,0,0,0,0,0,0,0,0,0,0,0,0,0,0,0,0,0,0,0,0,0,0,0,0,0,0,0,0,0,0,0,0,0,0,0,0,0,0,0,0,0,0,0],"id":3,"left_children":[1,3,5,7,9,11,13,15,17,19,21,23,25,27,29,31,33,35,37,39,41,43,45,47,49,-1,51,53,55,57,59,61,63,65,67,69,71,73,75,77,79,81,83,85,-1,87,89,91,-1,-1,-1,93,95,-1,97,99,101,-1,103,-1,-1,-1,-1,-1,-1,-1,-1,-1,-1,-1,-1,-1,-1,-1,-1,-1,-1,-1,-1,-1,-1,-1,-1,-1,-1,-1,-1,-1,-1,-1,-1,-1,-1,-1,-1,-1,-1,-1,-1,-1,-1,-1,-1,-1,-1],"loss_changes":[1.8137078E3,9.5588184E2,2.1551001E2,3.319959E2,2.0384802E2,3.6226562E1,5.4261673E1,1.1467239E2,1.1029264E2,8.132947E1,2.0838257E1,5.0841064E0,3.2386475E0,9.277142E0,6.9690056E0,5.6627136E1,7.175455E1,2.449965E1,3.8764027E1,3.338376E1,1.2076683E1,5.3494263E0,2.1737854E1,4.671509E0,1.69104E0,0E0,2.4361877E0,5.040081E0,3.9035594E0,2.3286915E0,3.125639E0,2.5468353E1,2.0093811E1,1.6543663E1,4.7412354E1,1.0231282E1,3.5457993E1,1.331916E1,2.048233E1,3.9700012E0,1.2393692E1,3.3751297E0,4.6500626E0,4.6896973E0,0E0,2.8327026E0,4.3612976E0,3.9231567E0,0E0,0E0,0E0,1.376029E0,1.9284058E0,0E0,1.5280533E0,1.9054544E0,4.818633E0,0E0,2.7236414E0,0E0,0E0,0E0,0E0,0E0,0E0,0E0,0E0,0E0,0E0,0E0,0E0,0E0,0E0,0E0,0E0,0E0,0E0,0E0,0E0,0E0,0E0,0E0,0E0,0E0,0E0,0E0,0E0,0E0,0E0,0E0,0E0,0E0,0E0,0E0,0E0,0E0,0E0,0E0,0E0,0E0,0E0,0E0,0E0,0E0,0E0],"parents":[2147483647,0,0,1,1,2,2,3,3,4,4,5,5,6,6,7,7,8,8,9,9,10,10,11,11,12,12,13,13,14,14,15,15,16,16,17,17,18,18,19,19,20,20,21,21,22,22,23,23,24,24,26,26,27,27,28,28,29,29,30,30,31,31,32,32,33,33,34,34,35,35,36,36,37,37,38,38,39,39,40,40,41,41,42,42,43,43,45,45,46,46,47,47,51,51,52,52,54,54,55,55,56,56,58,58],"right_children":[2,4,6,8,10,12,14,16,18,20,22,24,26,28,30,32,34,36,38,40,42,44,46,48,50,-1,52,54,56,58,60,62,64,66,68,70,72,74,76,78,80,82,84,86,-1,88,90,92,-1,-1,-1,94,96,-1,98,100,102,-1,104,-1,-1,-1,-1,-1,-1,-1,-1,-1,-1,-1,-1,-1,-1,-1,-1,-1,-1,-1,-1,-1,-1,-1,-1,-1,-1,-1,-1,-1,-1,-1,-1,-1,-1,-1,-1,-1,-1,-1,-1,-1,-1,-1,-1,-1,-1],"split_conditions":[-8.378E1,2.1321585E0,1.9820696E0,9.382696E-1,2.4190495E0,1.6989409E0,2.3960383E0,-8.445E1,1.7603124E0,1.0661155E0,1.0866073E0,1.4477223E0,1.5296367E-1,2.1532767E0,2.6263282E0,-1.223E2,1.767767E0,-8.451E1,-8.454E1,-8.447E1,-8.449E1,-1.1712E2,2.6263282E0,1.874363E0,1.6396761E-1,-0E0,7.950316E-1,1.4139111E-1,-8.35E1,-8.316E1,1.7521866E-1,3.801E1,-1.1979E2,-1.1714E2,3.425E1,3.734E1,-8.427E1,-8.48E1,1.1069044E0,-8.542E1,1.8E1,-8.549E1,2.308831E0,3.792E1,3.2863226E-2,2.0542169E-1,1.874363E0,1.7383966E-1,-2.78218E-3,-1.2649446E-3,-6.9615096E-2,3.382E1,3.745E1,3.067987E-2,-8.151E1,3.469E1,-1.2071E2,2.999127E-2,3.842E1,6.860428E-2,-3.68871E-4,1.1832356E-1,-0E0,2.8317858E-2,7.226971E-2,1.8077105E-3,-3.9451893E-2,5.3937048E-2,-1.3476637E-3,-1.4931737E-2,2.6106445E-2,-5.052817E-2,-2.091085E-2,7.476885E-3,4.9061738E-2,9.065331E-3,-1.4323075E-2,1.483773E-2,1.0126611E-1,2.7155612E-2,6.456108E-2,-0E0,5.245886E-2,9.978422E-3,3.0877972E-2,1.323558E-1,6.0662765E-2,6.715506E-2,-3.7127812E-3,1.1926594E-1,-2.2040193E-3,-0E0,-8.652454E-2,-0E0,-3.1370234E-2,-6.1412156E-2,-4.5962296E-2,-3.6627047E-2,-4.122421E-4,1.4028489E-2,-1.2846787E-2,-9.326488E-4,-3.0435313E-2,-2.0154752E-2,2.0790135E-2],"split_indices":[4,0,0,1,0,0,0,4,0,1,1,0,5,0,0,3,0,4,4,4,4,3,0,1,5,0,1,5,4,4,5,2,3,3,2,2,4,4,1,4,6,4,0,2,0,5,1,5,0,0,0,2,2,0,4,2,3,0,2,0,0,0,0,0,0,0,0,0,0,0,0,0,0,0,0,0,0,0,0,0,0,0,0,0,0,0,0,0,0,0,0,0,0,0,0,0,0,0,0,0,0,0,0,0,0],"split_type":[0,0,0,0,0,0,0,0,0,0,0,0,0,0,0,0,0,0,0,0,0,0,0,0,0,0,0,0,0,0,0,0,0,0,0,0,0,0,0,0,0,0,0,0,0,0,0,0,0,0,0,0,0,0,0,0,0,0,0,0,0,0,0,0,0,0,0,0,0,0,0,0,0,0,0,0,0,0,0,0,0,0,0,0,0,0,0,0,0,0,0,0,0,0,0,0,0,0,0,0,0,0,0,0,0],"sum_hessian":[1.2574E4,8.628E3,3.946E3,5.97E3,2.658E3,3.039E3,9.07E2,2.192E3,3.778E3,1.636E3,1.022E3,1.976E3,1.063E3,7.49E2,1.58E2,7.15E2,1.477E3,1.952E3,1.826E3,9.46E2,6.9E2,5.6E2,4.62E2,9.05E2,1.071E3,9E0,1.054E3,4.21E2,3.28E2,9.6E1,6.2E1,2.27E2,4.88E2,7.05E2,7.72E2,2.62E2,1.69E3,3.4E2,1.486E3,3.29E2,6.17E2,1.72E2,5.18E2,5.43E2,1.7E1,2.75E2,1.87E2,8.95E2,1E1,7E0,1.064E3,7.6E1,9.78E2,3E0,4.18E2,9.7E1,2.31E2,5.1E1,4.5E1,5.8E1,4E0,2.07E2,2E1,3.06E2,1.82E2,6E2,1.05E2,5.65E2,2.07E2,1.84E2,7.8E1,7.98E2,8.92E2,1.37E2,2.03E2,6.74E2,8.12E2,1.2E1,3.17E2,1.48E2,4.69E2,1.1E1,1.61E2,3.43E2,1.75E2,5.03E2,4E1,2.73E2,2E0,1.86E2,1E0,7E0,8.88E2,1.1E1,6.5E1,5.02E2,4.76E2,4E2,1.8E1,7E1,2.7E1,1.09E2,1.22E2,2.3E1,2.2E1],"tree_param":{"num_deleted":"0","num_feature":"7","num_nodes":"105","size_leaf_vector":"1"}},{"base_weights":[1.8189744E-3,2.3220845E-1,-5.049992E-1,1.5175581E-2,6.520031E-1,-6.0700536E-1,-8.241774E-2,2.807902E-1,-1.3755877E-1,4.400265E-1,9.6055514E-1,-6.933755E-1,-4.653011E-1,-2.2427003E-1,2.1623187E-1,-5.246978E-2,4.1748604E-1,-2.4357964E-1,4.001204E-2,6.18951E-1,1.9565624E-1,8.213231E-1,1.2511603E0,-4.6553552E-1,-7.2874737E-1,2.0956008E-2,-4.7000486E-1,1.0688358E-2,-2.4700855E-1,6.888827E-2,4.3730468E-1,5.1869497E-2,-3.6257094E-1,1.1135523E-1,5.5852795E-1,4.354221E-2,-2.890139E-1,3.4473214E-1,-2.7051091E-2,7.4606633E-1,3.4369856E-1,4.0734673E-1,1.2294472E-1,1.0150588E0,5.84535E-1,1.262399E0,-4.8112413E-3,2.0869724E-3,-4.8343007E-2,-7.8627664E-1,-6.362998E-2,-3.826905E-1,-5.232437E-1,1.952107E-2,-1.50976125E-2,-2.479954E-2,-2.7902734E-1,2.124315E-2,-2.6578343E-2,6.0358923E-2,2.0418414E-1,3.0358074E-2,-2.2667E-2,-1.2024616E-2,-4.6954595E-2,-6.451733E-3,2.233746E-2,9.297722E-2,3.8015258E-2,3.034739E-2,-4.5057023E-3,-4.291267E-2,-1.8310374E-2,4.8216812E-2,9.206448E-3,-3.6106538E-2,1.4971087E-3,9.416392E-2,5.086415E-2,4.1614573E-2,4.6536024E-3,-0E0,4.4055738E-2,2.2949485E-2,4.6817767E-3,1.0975649E-1,6.2483806E-2,5.913794E-2,-0E0,-0E0,1.2670214E-1,-7.9277165E-2,-2.9430685E-3,-3.033864E-2,-4.9852293E-2,-5.789053E-3,-5.2881446E-2,7.640599E-3,-1.511389E-2,-1.0148808E-2,-3.280015E-2,1.2698064E-2,-1.7455213E-2,-1.8963546E-3,4.6835374E-2],"categories":[],"categories_nodes":[],"categories_segments":[],"categories_sizes":[],"default_left":[0,0,0,0,0,0,0,0,0,0,0,0,0,0,0,0,0,0,0,0,0,0,0,0,0,0,0,0,0,0,0,0,0,0,0,0,0,0,0,0,0,0,0,0,0,0,0,0,0,0,0,0,0,0,0,0,0,0,0,0,0,0,0,0,0,0,0,0,0,0,0,0,0,0,0,0,0,0,0,0,0,0,0,0,0,0,0,0,0,0,0,0,0,0,0,0,0,0,0,0,0,0,0,0,0],"id":4,"left_children":[1,3,5,7,9,11,13,15,17,19,21,23,25,27,29,31,33,35,37,39,41,43,45,47,49,-1,51,53,55,57,59,61,63,65,67,69,71,73,75,77,79,81,83,85,87,89,-1,-1,-1,91,-1,93,95,-1,-1,97,99,-1,101,-1,103,-1,-1,-1,-1,-1,-1,-1,-1,-1,-1,-1,-1,-1,-1,-1,-1,-1,-1,-1,-1,-1,-1,-1,-1,-1,-1,-1,-1,-1,-1,-1,-1,-1,-1,-1,-1,-1,-1,-1,-1,-1,-1,-1,-1],"loss_changes":[1.4730801E3,7.8969763E2,1.6873383E2,2.3302742E2,1.8764697E2,3.4437134E1,3.3537003E1,9.6159E1,6.888492E1,7.5453E1,3.592212E1,1.1096252E1,5.1689453E0,3.126358E0,7.4662676E0,2.0462252E1,6.308551E1,3.0192581E1,2.8346241E1,3.1894623E1,1.075943E1,3.0909668E1,7.1514893E0,3.1137238E0,2.4188843E0,0E0,2.8186035E0,1.9199837E0,3.1346035E0,2.5308127E0,1.7199326E0,3.357723E1,2.9673042E0,9.858023E0,6.2435852E1,7.718612E0,2.7954285E1,7.663267E0,1.6218733E1,2.5520935E1,6.7064323E0,2.964882E0,4.38571E0,5.746643E0,1.1451111E0,1.0334473E0,0E0,0E0,0E0,3.7422485E0,0E0,2.3796844E0,1.002182E0,0E0,0E0,1.1747527E0,2.9416237E0,0E0,2.6551027E0,0E0,3.9572394E0,0E0,0E0,0E0,0E0,0E0,0E0,0E0,0E0,0E0,0E0,0E0,0E0,0E0,0E0,0E0,0E0,0E0,0E0,0E0,0E0,0E0,0E0,0E0,0E0,0E0,0E0,0E0,0E0,0E0,0E0,0E0,0E0,0E0,0E0,0E0,0E0,0E0,0E0,0E0,0E0,0E0,0E0,0E0,0E0],"parents":[2147483647,0,0,1,1,2,2,3,3,4,4,5,5,6,6,7,7,8,8,9,9,10,10,11,11,12,12,13,13,14,14,15,15,16,16,17,17,18,18,19,19,20,20,21,21,22,22,23,23,24,24,26,26,27,27,28,28,29,29,30,30,31,31,32,32,33,33,34,34,35,35,36,36,37,37,38,38,39,39,40,40,41,41,42,42,43,43,44,44,45,45,49,49,51,51,52,52,55,55,56,56,58,58,60,60],"right_children":[2,4,6,8,10,12,14,16,18,20,22,24,26,28,30,32,34,36,38,40,42,44,46,48,50,-1,52,54,56,58,60,62,64,66,68,70,72,74,76,78,80,82,84,86,88,90,-1,-1,-1,92,-1,94,96,-1,-1,98,100,-1,102,-1,104,-1,-1,-1,-1,-1,-1,-1,-1,-1,-1,-1,-1,-1,-1,-1,-1,-1,-1,-1,-1,-1,-1,-1,-1,-1,-1,-1,-1,-1,-1,-1,-1,-1,-1,-1,-1,-1,-1,-1,-1,-1,-1,-1,-1],"split_conditions":[-8.376E1,2.097713E0,2.017771E0,9.382696E-1,2.3848898E0,1.6894377E0,2.302303E0,1.641676E0,1.828606E0,1.0619513E0,2.6569154E0,7.999315E-1,1.4516129E-1,8.8114804E-1,2.5088644E0,3.781E1,2.5E1,-8.451E1,-8.456E1,-8.425E1,-8.449E1,1.0826119E0,2.250567E-1,1.819765E-1,1.5025978E0,2.0956008E-2,1.8E1,2.3E1,-8.363E1,-8.335E1,3.462E1,-1.1823E2,7.312989E-1,1.828606E0,7.2534764E-1,-1.2219E2,-8.428E1,-1.2185E2,3.297E1,9.250756E-1,2.0113409E-1,-8.549E1,1.1420974E0,-1.1802E2,1.9493178E-1,4.921085E-1,-4.8112413E-3,2.0869724E-3,-4.8343007E-2,1.874363E0,-6.362998E-2,1.084577E0,-8.373E1,1.952107E-2,-1.50976125E-2,3.469E1,1.5782122E-1,2.124315E-2,-1.2071E2,6.0358923E-2,3.834E1,3.0358074E-2,-2.2667E-2,-1.2024616E-2,-4.6954595E-2,-6.451733E-3,2.233746E-2,9.297722E-2,3.8015258E-2,3.034739E-2,-4.5057023E-3,-4.291267E-2,-1.8310374E-2,4.8216812E-2,9.206448E-3,-3.6106538E-2,1.4971087E-3,9.416392E-2,5.086415E-2,4.1614573E-2,4.6536024E-3,-0E0,4.4055738E-2,2.2949485E-2,4.6817767E-3,1.0975649E-1,6.2483806E-2,5.913794E-2,-0E0,-0E0,1.2670214E-1,-7.9277165E-2,-2.9430685E-3,-3.033864E-2,-4.9852293E-2,-5.789053E-3,-5.2881446E-2,7.640599E-3,-1.511389E-2,-1.0148808E-2,-3.280015E-2,1.2698064E-2,-1.7455213E-2,-1.8963546E-3,4.6835374E-2],"split_indices":[4,0,0,1,0,0,0,0,0,1,0,1,5,1,0,2,6,4,4,4,4,1,5,5,0,0,6,6,4,4,2,3,1,0,1,3,4,3,2,1,5,4,1,3,5,1,0,0,0,1,0,1,4,0,0,2,5,0,3,0,2,0,0,0,0,0,0,0,0,0,0,0,0,0,0,0,0,0,0,0,0,0,0,0,0,0,0,0,0,0,0,0,0,0,0,0,0,0,0,0,0,0,0,0,0],"split_type":[0,0,0,0,0,0,0,0,0,0,0,0,0,0,0,0,0,0,0,0,0,0,0,0,0,0,0,0,0,0,0,0,0,0,0,0,0,0,0,0,0,0,0,0,0,0,0,0,0,0,0,0,0,0,0,0,0,0,0,0,0,0,0,0,0,0,0,0,0,0,0,0,0,0,0,0,0,0,0,0,0,0,0,0,0,0,0,0,0,0,0,0,0,0,0,0,0,0,0,0,0,0,0,0,0],"sum_hessian":[1.2598E4,8.666E3,3.932E3,5.721E3,2.945E3,3.162E3,7.7E2,2.088E3,3.633E3,1.762E3,1.183E3,1.936E3,1.226E3,5.26E2,2.44E2,6.07E2,1.481E3,2.276E3,1.357E3,1.006E3,7.56E2,8.28E2,3.55E2,2.83E2,1.653E3,4E0,1.222E3,4.3E1,4.83E2,1.57E2,8.7E1,4.58E2,1.49E2,4.75E2,1.006E3,3.08E2,1.968E3,2.4E2,1.117E3,6.74E2,3.32E2,1.78E2,5.78E2,4.35E2,3.93E2,3.53E2,2E0,8E0,2.75E2,9.66E2,6.87E2,5.01E2,7.21E2,2.2E1,2.1E1,6.7E1,4.16E2,6.2E1,9.5E1,3.9E1,4.8E1,2.42E2,2.16E2,5.5E1,9.4E1,1.83E2,2.92E2,3.11E2,6.95E2,7.5E1,2.33E2,8.3E2,1.138E3,1.47E2,9.3E1,1.19E2,9.98E2,3.51E2,3.23E2,2.61E2,7.1E1,1.2E1,1.66E2,2.27E2,3.51E2,3.42E2,9.3E1,3.87E2,6E0,2E0,3.51E2,9.56E2,1E1,3.24E2,1.77E2,1.2E1,7.09E2,3.5E1,3.2E1,1.01E2,3.15E2,4.4E1,5.1E1,2.9E1,1.9E1],"tree_param":{"num_deleted":"0","num_feature":"7","num_nodes":"105","size_leaf_vector":"1"}},{"base_weights":[6.61942E-3,-2.2908697E-1,4.202641E-1,-1.5133757E-2,-5.4740006E-1,2.4347118E-1,7.855931E-1,2.5434E-1,-1.4086215E-1,-6.68748E-1,-4.647399E-1,4.838599E-1,1.27028255E-2,8.497331E-1,2.4463974E-1,3.381675E-1,-1.23449914E-1,-2.9875603E-1,-4.7879424E-2,-1.902063E-2,-6.82274E-2,-3.3941177E-1,-5.0348806E-1,8.428294E-1,3.207254E-1,1.5275833E-1,-1.7114884E-1,1.0216047E0,6.5335375E-1,1.03318065E-1,6.014396E-1,5.039237E-1,-5.796733E-2,4.4341946E-1,-1.944968E-1,-3.719129E-1,1.045213E-2,1.544045E-1,-1.1555333E-1,-1.2734698E-1,-4.4826248E-1,-6.649645E-1,-4.2269003E-1,2.6185647E-1,9.332264E-1,4.9007615E-1,1.604619E-1,1.0155119E-1,4.9011993E-1,-4.1248295E-2,-2.4174578E-1,6.5316844E-1,1.0897375E0,4.86407E-1,9.637456E-1,2.4310647E-1,-6.554543E-4,6.473448E-2,-0E0,9.683098E-2,4.2393666E-2,7.0894654E-3,-3.3570837E-2,5.1713716E-2,-0E0,-3.2531984E-2,-1.0283618E-2,-4.4849046E-2,-2.253948E-2,-2.11187E-2,1.3933564E-2,4.2232268E-2,3.0558722E-3,-6.428574E-3,-2.991028E-2,-0E0,-2.7391938E-2,2.6701696E-3,-4.6754666E-2,-3.9667867E-2,-7.1499266E-2,-3.7485074E-2,-5.9331067E-2,-5.6009055E-3,3.6904905E-2,9.543629E-2,7.622195E-4,6.181236E-2,3.0188987E-2,2.0786216E-2,-2.1210095E-2,1.8224498E-2,-3.3959434E-3,5.2783187E-2,-4.6514273E-3,4.6479953E-3,-2.1453235E-2,-5.2449472E-2,-1.2248094E-2,-0E0,6.782418E-2,-0E0,1.0944897E-1,5.131337E-2,2.0328453E-2,9.823858E-2,-3.2173487E-4,3.0185983E-2,-4.152646E-3],"categories":[],"categories_nodes":[],"categories_segments":[],"categories_sizes":[],"default_left":[0,0,0,0,0,0,0,0,0,0,0,0,0,0,0,0,0,0,0,0,0,0,0,0,0,0,0,0,0,0,0,0,0,0,0,0,0,0,0,0,0,0,0,0,0,0,0,0,0,0,0,0,0,0,0,0,0,0,0,0,0,0,0,0,0,0,0,0,0,0,0,0,0,0,0,0,0,0,0,0,0,0,0,0,0,0,0,0,0,0,0,0,0,0,0,0,0,0,0,0,0,0,0,0,0,0,0,0,0],"id":5,"left_children":[1,3,5,7,9,11,13,15,17,19,21,23,25,27,29,31,33,35,37,-1,-1,39,41,43,45,47,49,51,53,55,57,59,61,63,65,67,69,71,73,75,77,79,81,83,85,87,89,91,93,95,97,99,101,103,105,107,-1,-1,-1,-1,-1,-1,-1,-1,-1,-1,-1,-1,-1,-1,-1,-1,-1,-1,-1,-1,-1,-1,-1,-1,-1,-1,-1,-1,-1,-1,-1,-1,-1,-1,-1,-1,-1,-1,-1,-1,-1,-1,-1,-1,-1,-1,-1,-1,-1,-1,-1,-1,-1],"loss_changes":[1.2272975E3,5.452771E2,2.922234E2,1.6307448E2,2.8057251E1,1.7118979E2,4.8316895E1,4.9086037E1,4.775341E1,6.09552E0,6.932434E0,8.479364E1,4.1236156E1,3.6236755E1,7.3971243E0,8.327495E1,1.2011141E1,2.781662E1,2.866816E1,0E0,0E0,1.0349075E1,1.5215424E1,2.0782135E1,2.730513E1,1.4665701E1,5.94499E0,8.309448E0,2.7388977E1,2.3720167E0,1.7415466E0,2.7524536E1,1.4031532E1,1.2670074E0,2.3550415E0,9.344498E0,7.0495925E0,1.677148E1,1.4227661E1,3.211232E0,3.5149765E0,2.3201141E0,5.0354767E0,3.1774197E0,6.7321777E0,9.430992E0,1.03613205E1,9.034614E0,3.0541496E0,4.220262E0,1.3548304E1,2.173256E0,3.4169312E0,1.5926056E0,4.8679657E0,1.4726892E0,0E0,0E0,0E0,0E0,0E0,0E0,0E0,0E0,0E0,0E0,0E0,0E0,0E0,0E0,0E0,0E0,0E0,0E0,0E0,0E0,0E0,0E0,0E0,0E0,0E0,0E0,0E0,0E0,0E0,0E0,0E0,0E0,0E0,0E0,0E0,0E0,0E0,0E0,0E0,0E0,0E0,0E0,0E0,0E0,0E0,0E0,0E0,0E0,0E0,0E0,0E0,0E0,0E0],"parents":[2147483647,0,0,1,1,2,2,3,3,4,4,5,5,6,6,7,7,8,8,9,9,10,10,11,11,12,12,13,13,14,14,15,15,16,16,17,17,18,18,21,21,22,22,23,23,24,24,25,25,26,26,27,27,28,28,29,29,30,30,31,31,32,32,33,33,34,34,35,35,36,36,37,37,38,38,39,39,40,40,41,41,42,42,43,43,44,44,45,45,46,46,47,47,48,48,49,49,50,50,51,51,52,52,53,53,54,54,55,55],"right_children":[2,4,6,8,10,12,14,16,18,20,22,24,26,28,30,32,34,36,38,-1,-1,40,42,44,46,48,50,52,54,56,58,60,62,64,66,68,70,72,74,76,78,80,82,84,86,88,90,92,94,96,98,100,102,104,106,108,-1,-1,-1,-1,-1,-1,-1,-1,-1,-1,-1,-1,-1,-1,-1,-1,-1,-1,-1,-1,-1,-1,-1,-1,-1,-1,-1,-1,-1,-1,-1,-1,-1,-1,-1,-1,-1,-1,-1,-1,-1,-1,-1,-1,-1,-1,-1,-1,-1,-1,-1,-1,-1],"split_conditions":[2.0078096E0,-8.387E1,2.3670447E0,8.9450955E-1,1.5309474E0,-8.423E1,-8.37E1,3.781E1,1.585213E0,5.803748E-1,3.416E1,8.9450955E-1,-8.383E1,1.0779219E0,2.7213233E0,-1.1811E2,-8.453E1,3.2733813E-1,-8.446E1,-1.902063E-2,-6.82274E-2,-8.356E1,3.726E1,1.7E1,-8.447E1,4.1E1,3.469E1,1.7E1,2.6263282E0,1.4306289E-1,1.7521866E-1,-1.2229E2,-1.1714E2,3.827E1,1.5811388E0,-8.427E1,3.405E1,-1.2219E2,3.425E1,1.1988966E0,6.616485E-1,3.487E1,3.933E1,2.0676074E0,-1.1716E2,1.1046112E0,-1.1717E2,1.139258E0,3.795E1,-8.334E1,3.741E1,3.284E1,-8.555E1,1.3126825E0,1.6237677E0,1.2477477E0,-6.554543E-4,6.473448E-2,-0E0,9.683098E-2,4.2393666E-2,7.0894654E-3,-3.3570837E-2,5.1713716E-2,-0E0,-3.2531984E-2,-1.0283618E-2,-4.4849046E-2,-2.253948E-2,-2.11187E-2,1.3933564E-2,4.2232268E-2,3.0558722E-3,-6.428574E-3,-2.991028E-2,-0E0,-2.7391938E-2,2.6701696E-3,-4.6754666E-2,-3.9667867E-2,-7.1499266E-2,-3.7485074E-2,-5.9331067E-2,-5.6009055E-3,3.6904905E-2,9.543629E-2,7.622195E-4,6.181236E-2,3.0188987E-2,2.0786216E-2,-2.1210095E-2,1.8224498E-2,-3.3959434E-3,5.2783187E-2,-4.6514273E-3,4.6479953E-3,-2.1453235E-2,-5.2449472E-2,-1.2248094E-2,-0E0,6.782418E-2,-0E0,1.0944897E-1,5.131337E-2,2.0328453E-2,9.823858E-2,-3.2173487E-4,3.0185983E-2,-4.152646E-3],"split_indices":[0,4,0,1,0,4,4,2,0,1,2,1,4,1,0,3,4,5,4,0,0,4,2,6,4,6,2,6,0,5,5,3,3,2,0,4,2,3,2,1,1,2,2,0,3,1,3,1,2,4,2,2,4,1,1,1,0,0,0,0,0,0,0,0,0,0,0,0,0,0,0,0,0,0,0,0,0,0,0,0,0,0,0,0,0,0,0,0,0,0,0,0,0,0,0,0,0,0,0,0,0,0,0,0,0,0,0,0,0],"split_type":[0,0,0,0,0,0,0,0,0,0,0,0,0,0,0,0,0,0,0,0,0,0,0,0,0,0,0,0,0,0,0,0,0,0,0,0,0,0,0,0,0,0,0,0,0,0,0,0,0,0,0,0,0,0,0,0,0,0,0,0,0,0,0,0,0,0,0,0,0,0,0,0,0,0,0,0,0,0,0,0,0,0,0,0,0,0,0,0,0,0,0,0,0,0,0,0,0,0,0,0,0,0,0,0,0,0,0,0,0],"sum_hessian":[1.2566E4,8.006E3,4.56E3,4.796E3,3.21E3,3.086E3,1.474E3,1.52E3,3.276E3,1.267E3,1.943E3,1.504E3,1.582E3,1.311E3,1.63E2,1.247E3,2.73E2,1.202E3,2.074E3,4.1E1,1.226E3,4.88E2,1.455E3,4.55E2,1.049E3,9.02E2,6.8E2,6.74E2,6.37E2,1.28E2,3.5E1,8.79E2,3.68E2,2.3E1,2.5E2,9.73E2,2.29E2,5.13E2,1.561E3,1.76E2,3.12E2,4.57E2,9.98E2,6.8E1,3.87E2,4.97E2,5.52E2,7.97E2,1.05E2,2.5E2,4.3E2,1.24E2,5.5E2,4.33E2,2.04E2,5.5E1,7.3E1,3.3E1,2E0,1.11E2,7.68E2,2.54E2,1.14E2,1.9E1,4E0,8.8E1,1.62E2,6.21E2,3.52E2,7.9E1,1.5E2,1.52E2,3.61E2,1.235E3,3.26E2,1.03E2,7.3E1,1E1,3.02E2,8.9E1,3.68E2,8.09E2,1.89E2,1.6E1,5.2E1,3.77E2,1E1,2.79E2,2.18E2,4.96E2,5.6E1,5.02E2,2.95E2,1E2,5E0,1.67E2,8.3E1,1.15E2,3.15E2,5E0,1.19E2,2E0,5.48E2,3.85E2,4.8E1,2.01E2,3E0,4.8E1,7E0],"tree_param":{"num_deleted":"0","num_feature":"7","num_nodes":"109","size_leaf_vector":"1"}},{"base_weights":[3.03967E-3,-2.1923468E-1,3.610378E-1,-2.7160939E-2,-4.9395564E-1,2.0497034E-1,7.1142644E-1,2.3572409E-1,-1.3608876E-1,-5.5754787E-1,-3.5846812E-1,4.1709647E-1,-9.865668E-4,7.710908E-1,1.8623745E-1,-2.3179416E-2,3.6827743E-1,-2.049893E-2,-2.5321802E-1,-3.9975357E-1,-5.8573544E-1,-2.4103825E-1,-3.914299E-1,7.0517933E-1,2.5623927E-1,1.2516686E-1,-1.8249334E-1,6.983187E-1,1.1722271E0,2.4501422E-2,3.8234732E-1,9.051952E-2,-2.1548718E-1,4.913526E-2,5.364828E-1,2.7310004E-2,-3.88832E-1,-3.3697376E-1,-1.4406188E-1,-0E0,-4.0835477E-2,-6.6245335E-1,-5.2806437E-1,-1.2655896E-1,-3.8175368E-1,-4.782529E-1,-3.182634E-1,3.1906474E-1,7.9503673E-1,3.0171964E-1,-2.2332465E-2,2.1428488E-1,-3.1343423E-2,-2.092465E-1,1.1087211E-1,5.565202E-1,9.32965E-1,1.1824123E-1,-0E0,-7.345129E-2,2.3474222E-2,4.0679406E-2,-0E0,-8.123802E-3,4.1548472E-2,-3.26493E-2,1.4044993E-3,1.5504393E-2,-1.6980598E-2,6.184128E-2,3.2102414E-3,9.338914E-3,-3.3467602E-2,-4.031081E-2,-0E0,-4.2435825E-2,-1.5522361E-2,1.8834058E-2,-1.750636E-2,-6.699409E-2,-4.302111E-3,-0E0,-5.300461E-2,-2.3205492E-3,-2.5934381E-2,-4.2186517E-2,1.2320007E-2,-0E0,-4.947311E-2,-3.9190657E-2,-2.0078985E-2,-7.4052275E-4,3.846231E-2,9.508232E-2,5.6746494E-2,4.2744428E-2,1.8327756E-2,7.831309E-3,3.2309517E-2,-2.40923E-2,-0E0,5.927787E-3,-2.245616E-2,2.3751812E-2,-2.9735581E-3,7.974781E-2,4.9081475E-2,9.693764E-2,4.388589E-3,6.663327E-3,-2.069836E-2],"categories":[],"categories_nodes":[],"categories_segments":[],"categories_sizes":[],"default_left":[0,0,0,0,0,0,0,0,0,0,0,0,0,0,0,0,0,0,0,0,0,0,0,0,0,0,0,0,0,0,0,0,0,0,0,0,0,0,0,0,0,0,0,0,0,0,0,0,0,0,0,0,0,0,0,0,0,0,0,0,0,0,0,0,0,0,0,0,0,0,0,0,0,0,0,0,0,0,0,0,0,0,0,0,0,0,0,0,0,0,0,0,0,0,0,0,0,0,0,0,0,0,0,0,0,0,0,0,0,0,0],"id":6,"left_children":[1,3,5,7,9,11,13,15,17,19,21,23,25,27,29,31,33,35,37,39,41,43,45,47,49,51,53,55,57,59,61,63,65,67,69,71,73,75,77,-1,-1,79,81,83,85,87,89,91,93,95,-1,97,99,101,103,105,107,-1,-1,109,-1,-1,-1,-1,-1,-1,-1,-1,-1,-1,-1,-1,-1,-1,-1,-1,-1,-1,-1,-1,-1,-1,-1,-1,-1,-1,-1,-1,-1,-1,-1,-1,-1,-1,-1,-1,-1,-1,-1,-1,-1,-1,-1,-1,-1,-1,-1,-1,-1,-1,-1],"loss_changes":[1.00897424E3,4.119801E2,2.6328156E2,1.3237398E2,2.4785706E1,1.4795744E2,4.432715E1,4.6863426E1,4.3973824E1,6.3025513E0,2.5269623E0,7.443439E1,3.969269E1,2.888507E1,4.796381E0,1.0487338E1,4.7356712E1,2.9734886E1,1.3844284E1,1.2029686E0,3.319397E0,3.2774296E0,2.7951813E0,1.6784729E1,2.446048E1,1.4449055E1,5.926317E0,3.1781372E1,1.7124634E0,2.4960463E0,1.0580559E0,1.7193085E1,4.919117E0,7.7381625E0,2.3325424E1,3.542462E1,1.2183456E0,1.3119171E1,7.7978983E0,0E0,0E0,2.3845825E0,1.442749E0,1.9216914E0,3.0463924E0,3.0357056E0,2.7123795E0,3.1880722E0,9.713409E0,1.3482071E1,0E0,9.021582E0,2.5928168E0,3.0126343E0,1.4002764E0,6.640091E0,1.2093079E1,0E0,0E0,1.6999122E0,0E0,0E0,0E0,0E0,0E0,0E0,0E0,0E0,0E0,0E0,0E0,0E0,0E0,0E0,0E0,0E0,0E0,0E0,0E0,0E0,0E0,0E0,0E0,0E0,0E0,0E0,0E0,0E0,0E0,0E0,0E0,0E0,0E0,0E0,0E0,0E0,0E0,0E0,0E0,0E0,0E0,0E0,0E0,0E0,0E0,0E0,0E0,0E0,0E0,0E0,0E0],"parents":[2147483647,0,0,1,1,2,2,3,3,4,4,5,5,6,6,7,7,8,8,9,9,10,10,11,11,12,12,13,13,14,14,15,15,16,16,17,17,18,18,19,19,20,20,21,21,22,22,23,23,24,24,25,25,26,26,27,27,28,28,29,29,30,30,31,31,32,32,33,33,34,34,35,35,36,36,37,37,38,38,41,41,42,42,43,43,44,44,45,45,46,46,47,47,48,48,49,49,51,51,52,52,53,53,54,54,55,55,56,56,59,59],"right_children":[2,4,6,8,10,12,14,16,18,20,22,24,26,28,30,32,34,36,38,40,42,44,46,48,50,52,54,56,58,60,62,64,66,68,70,72,74,76,78,-1,-1,80,82,84,86,88,90,92,94,96,-1,98,100,102,104,106,108,-1,-1,110,-1,-1,-1,-1,-1,-1,-1,-1,-1,-1,-1,-1,-1,-1,-1,-1,-1,-1,-1,-1,-1,-1,-1,-1,-1,-1,-1,-1,-1,-1,-1,-1,-1,-1,-1,-1,-1,-1,-1,-1,-1,-1,-1,-1,-1,-1,-1,-1,-1,-1,-1],"split_conditions":[1.9820696E0,-8.387E1,2.3595974E0,8.7500906E-1,1.7235428E0,-8.422E1,-8.37E1,1.6336769E0,1.176657E0,8.275775E-1,-8.347E1,9.204392E-1,-8.376E1,2.7916303E0,2.555093E0,-1.1822E2,2.5E1,-1.1721E2,3.404E1,1.819765E-1,1.4337363E0,3.469E1,3.738E1,2E1,-1.1719E2,1.1420974E0,2.308831E0,2.8E1,1.6237677E0,3.842E1,1.3126825E0,-1.1982E2,3E1,-1.1798E2,3.782E1,3.781E1,-1.1689E2,-8.423E1,-1.2239E2,-0E0,-4.0835477E-2,1.874363E0,1.6274378E-1,1.1988966E0,-8.35E1,7.029416E-1,-1.2123E2,7E0,8.385756E-1,-8.449E1,-2.2332465E-2,3.394E1,-1.1852E2,8.043728E-1,1.1115994E0,-8.46E1,1.2091899E0,1.1824123E-1,-0E0,3.423E1,2.3474222E-2,4.0679406E-2,-0E0,-8.123802E-3,4.1548472E-2,-3.26493E-2,1.4044993E-3,1.5504393E-2,-1.6980598E-2,6.184128E-2,3.2102414E-3,9.338914E-3,-3.3467602E-2,-4.031081E-2,-0E0,-4.2435825E-2,-1.5522361E-2,1.8834058E-2,-1.750636E-2,-6.699409E-2,-4.302111E-3,-0E0,-5.300461E-2,-2.3205492E-3,-2.5934381E-2,-4.2186517E-2,1.2320007E-2,-0E0,-4.947311E-2,-3.9190657E-2,-2.0078985E-2,-7.4052275E-4,3.846231E-2,9.508232E-2,5.6746494E-2,4.2744428E-2,1.8327756E-2,7.831309E-3,3.2309517E-2,-2.40923E-2,-0E0,5.927787E-3,-2.245616E-2,2.3751812E-2,-2.9735581E-3,7.974781E-2,4.9081475E-2,9.693764E-2,4.388589E-3,6.663327E-3,-2.069836E-2],"split_indices":[0,4,0,1,0,4,4,0,1,1,4,1,4,0,0,3,6,3,2,5,0,2,2,6,3,1,0,6,1,2,1,3,6,3,2,2,3,4,3,0,0,1,5,1,4,1,3,6,1,4,0,2,3,1,1,4,1,0,0,2,0,0,0,0,0,0,0,0,0,0,0,0,0,0,0,0,0,0,0,0,0,0,0,0,0,0,0,0,0,0,0,0,0,0,0,0,0,0,0,0,0,0,0,0,0,0,0,0,0,0,0],"split_type":[0,0,0,0,0,0,0,0,0,0,0,0,0,0,0,0,0,0,0,0,0,0,0,0,0,0,0,0,0,0,0,0,0,0,0,0,0,0,0,0,0,0,0,0,0,0,0,0,0,0,0,0,0,0,0,0,0,0,0,0,0,0,0,0,0,0,0,0,0,0,0,0,0,0,0,0,0,0,0,0,0,0,0,0,0,0,0,0,0,0,0,0,0,0,0,0,0,0,0,0,0,0,0,0,0,0,0,0,0,0,0],"sum_hessian":[1.2658E4,7.81E3,4.848E3,4.605E3,3.205E3,3.367E3,1.481E3,1.343E3,3.262E3,2.155E3,1.05E3,1.656E3,1.711E3,1.324E3,1.57E2,4.55E2,8.88E2,1.652E3,1.61E3,3.55E2,1.8E3,2.55E2,7.95E2,5.79E2,1.077E3,1.008E3,7.03E2,1.146E3,1.78E2,9.5E1,6.2E1,2.86E2,1.69E2,3.13E2,5.75E2,1.468E3,1.84E2,8.94E2,7.16E2,8E0,3.47E2,7.2E2,1.08E3,1.55E2,1E2,3.32E2,4.63E2,1.2E2,4.59E2,9.89E2,8.8E1,6.44E2,3.64E2,6.5E2,5.3E1,7.38E2,4.08E2,1.76E2,2E0,6.6E1,2.9E1,6E1,2E0,1.9E2,9.6E1,1.14E2,5.5E1,2.16E2,9.7E1,4.91E2,8.4E1,1.25E3,2.18E2,1.78E2,6E0,5.91E2,3.03E2,5.4E1,6.62E2,7.09E2,1.1E1,3E0,1.077E3,9.8E1,5.7E1,9.6E1,4E0,1E1,3.22E2,2.65E2,1.98E2,1.9E1,1.01E2,2.51E2,2.08E2,4.63E2,5.26E2,2.98E2,3.46E2,4.1E1,3.23E2,3E1,6.2E2,2.8E1,2.5E1,1.31E2,6.07E2,3.9E2,1.8E1,3.1E1,3.5E1],"tree_param":{"num_deleted":"0","num_feature":"7","num_nodes":"111","size_leaf_vector":"1"}},{"base_weights":[-2.9655974E-3,-2.2683594E-1,2.7825582E-1,-5.8189347E-2,-4.5973712E-1,3.8481963E-1,-1.1459586E-1,1.2442249E-1,-1.8152456E-1,-5.4258996E-1,-3.8770044E-1,2.643366E-1,6.857621E-1,-1.990362E-1,1.5945719E-1,4.2121333E-1,4.2523332E-2,-2.8097212E-1,-8.9697E-2,-4.2974228E-1,-5.832744E-1,-2.7389902E-1,-4.2168596E-1,6.0575855E-1,1.6783914E-1,5.6630564E-1,8.9514875E-1,-1.0451937E-1,-2.6176062E-1,3.5638186E-1,-1.1482439E-2,1.2680744E-1,6.9308007E-1,-2.0012777E-1,1.6133957E-1,-4.1389972E-1,-1.9117916E-1,3.1986408E-2,-2.3680286E-1,2.7811597E-4,-4.4011433E-2,-0E0,-5.8929432E-2,-9.08424E-2,-3.5804743E-1,-5.558565E-2,-3.5920537E-1,1.6146022E-1,7.928408E-1,2.6808715E-1,2.296635E-2,4.073664E-1,7.575986E-1,9.302874E-1,-0E0,2.3305036E-2,-1.6313499E-1,-6.3043223E-3,-2.8836724E-1,4.6288103E-2,8.1946794E-4,-1.5336905E-1,2.3804897E-1,3.1714614E-2,-1.6218222E-3,2.2289839E-2,8.454641E-2,-5.63275E-3,-3.0033901E-2,5.631053E-2,-5.5466443E-3,-1.8801335E-3,-4.389937E-2,1.426202E-2,-2.1294173E-2,2.205187E-2,-1.3679114E-2,-5.47238E-3,-4.4552103E-2,1.9208484E-3,-1.7348213E-2,-0E0,-3.889645E-2,-4.2112257E-2,-2.5113484E-2,2.8866643E-2,-1.4057437E-2,1.0484423E-1,6.278368E-2,4.8366327E-2,1.7917234E-2,2.0152682E-2,-2.674866E-3,4.3074366E-2,1.029783E-2,6.142514E-2,9.6880436E-2,9.382605E-2,2.549715E-3,1.9877918E-2,-1.7454453E-2,1.6209874E-2,-1.9297957E-2,-2.1520335E-2,8.712533E-3,-1.6047588E-2,-3.5109483E-2,1.3429195E-2,-2.0219944E-2,4.669228E-3,4.3961715E-2],"categories":[],"categories_nodes":[],"categories_segments":[],"categories_sizes":[],"default_left":[0,0,0,0,0,0,0,0,0,0,0,0,0,0,0,0,0,0,0,0,0,0,0,0,0,0,0,0,0,0,0,0,0,0,0,0,0,0,0,0,0,0,0,0,0,0,0,0,0,0,0,0,0,0,0,0,0,0,0,0,0,0,0,0,0,0,0,0,0,0,0,0,0,0,0,0,0,0,0,0,0,0,0,0,0,0,0,0,0,0,0,0,0,0,0,0,0,0,0,0,0,0,0,0,0,0,0,0,0,0,0],"id":7,"left_children":[1,3,5,7,9,11,13,15,17,19,21,23,25,27,29,31,33,35,37,39,41,43,45,47,49,51,53,55,57,59,61,63,65,67,69,71,73,75,77,-1,-1,-1,-1,79,81,-1,83,85,87,89,91,93,95,97,99,101,103,-1,105,-1,-1,107,109,-1,-1,-1,-1,-1,-1,-1,-1,-1,-1,-1,-1,-1,-1,-1,-1,-1,-1,-1,-1,-1,-1,-1,-1,-1,-1,-1,-1,-1,-1,-1,-1,-1,-1,-1,-1,-1,-1,-1,-1,-1,-1,-1,-1,-1,-1,-1,-1],"loss_changes":[7.912584E2,2.741605E2,2.3385052E2,9.20395E1,1.4489441E1,1.5623059E2,2.7987469E1,3.9342033E1,2.1650322E1,2.6049805E0,4.383972E0,1.0199068E2,2.4609985E1,4.8143616E0,9.945894E0,2.6475025E1,3.785075E1,1.2461288E1,2.33362E1,2.2350693E0,3.2048645E0,5.479841E0,7.282074E0,5.495233E1,3.5548744E1,2.077127E1,1.2997559E1,3.0999265E0,2.3218803E0,4.497015E0,5.909835E0,5.3342304E0,9.872124E0,5.6706333E0,7.773388E1,3.9707947E0,5.575279E0,2.297759E1,2.1601837E1,0E0,0E0,0E0,0E0,1.5063101E0,3.384285E0,0E0,4.044861E0,8.929589E0,1.1985382E1,2.6379051E1,9.336625E0,2.395584E0,3.3350525E0,1.790802E0,1.2991343E0,4.064323E0,3.8859706E0,0E0,2.6874695E0,0E0,0E0,1.8845711E0,1.5841367E0,0E0,0E0,0E0,0E0,0E0,0E0,0E0,0E0,0E0,0E0,0E0,0E0,0E0,0E0,0E0,0E0,0E0,0E0,0E0,0E0,0E0,0E0,0E0,0E0,0E0,0E0,0E0,0E0,0E0,0E0,0E0,0E0,0E0,0E0,0E0,0E0,0E0,0E0,0E0,0E0,0E0,0E0,0E0,0E0,0E0,0E0,0E0,0E0],"parents":[2147483647,0,0,1,1,2,2,3,3,4,4,5,5,6,6,7,7,8,8,9,9,10,10,11,11,12,12,13,13,14,14,15,15,16,16,17,17,18,18,19,19,20,20,21,21,22,22,23,23,24,24,25,25,26,26,27,27,28,28,29,29,30,30,31,31,32,32,33,33,34,34,35,35,36,36,37,37,38,38,43,43,44,44,46,46,47,47,48,48,49,49,50,50,51,51,52,52,53,53,54,54,55,55,56,56,58,58,61,61,62,62],"right_children":[2,4,6,8,10,12,14,16,18,20,22,24,26,28,30,32,34,36,38,40,42,44,46,48,50,52,54,56,58,60,62,64,66,68,70,72,74,76,78,-1,-1,-1,-1,80,82,-1,84,86,88,90,92,94,96,98,100,102,104,-1,106,-1,-1,108,110,-1,-1,-1,-1,-1,-1,-1,-1,-1,-1,-1,-1,-1,-1,-1,-1,-1,-1,-1,-1,-1,-1,-1,-1,-1,-1,-1,-1,-1,-1,-1,-1,-1,-1,-1,-1,-1,-1,-1,-1,-1,-1,-1,-1,-1,-1,-1,-1],"split_conditions":[1.9148629E0,-8.39E1,-8.385E1,9.678781E-1,1.5363268E0,2.3670447E0,2.302303E0,-8.46E1,3.403E1,8.9450955E-1,3.416E1,8.630521E-1,2.8E1,1.7022412E-1,3.462E1,3.715E1,-1.1881E2,1.5025978E0,3.45E1,1.7973697E-1,8E0,-8.358E1,3.724E1,2E1,1.1089257E0,2.5692801E0,1.2216297E0,-8.343E1,8.7500906E-1,-8.34E1,3.842E1,7.648171E-1,2.9E1,7.787609E-1,-1.183E2,-8.444E1,-1.1834E2,1.2358134E0,-8.445E1,2.7811597E-4,-4.4011433E-2,-0E0,-5.8929432E-2,1.1069044E0,7.389567E-1,-5.558565E-2,-1.2123E2,-8.414E1,7.2534764E-1,-8.447E1,-8.454E1,-1.1719E2,2.7916303E0,-1.171E2,-8.452E1,3.469E1,-8.249E1,-6.3043223E-3,-8.347E1,4.6288103E-2,8.1946794E-4,1.3030529E-1,2.485357E0,3.1714614E-2,-1.6218222E-3,2.2289839E-2,8.454641E-2,-5.63275E-3,-3.0033901E-2,5.631053E-2,-5.5466443E-3,-1.8801335E-3,-4.389937E-2,1.426202E-2,-2.1294173E-2,2.205187E-2,-1.3679114E-2,-5.47238E-3,-4.4552103E-2,1.9208484E-3,-1.7348213E-2,-0E0,-3.889645E-2,-4.2112257E-2,-2.5113484E-2,2.8866643E-2,-1.4057437E-2,1.0484423E-1,6.278368E-2,4.8366327E-2,1.7917234E-2,2.0152682E-2,-2.674866E-3,4.3074366E-2,1.029783E-2,6.142514E-2,9.6880436E-2,9.382605E-2,2.549715E-3,1.9877918E-2,-1.7454453E-2,1.6209874E-2,-1.9297957E-2,-2.1520335E-2,8.712533E-3,-1.6047588E-2,-3.5109483E-2,1.3429195E-2,-2.0219944E-2,4.669228E-3,4.3961715E-2],"split_indices":[0,4,4,1,0,0,0,4,2,1,2,1,6,5,2,2,3,0,2,5,6,4,2,6,1,0,1,4,1,4,2,1,6,1,3,4,3,1,4,0,0,0,0,1,1,0,3,4,1,4,4,3,0,3,4,2,4,0,4,0,0,5,0,0,0,0,0,0,0,0,0,0,0,0,0,0,0,0,0,0,0,0,0,0,0,0,0,0,0,0,0,0,0,0,0,0,0,0,0,0,0,0,0,0,0,0,0,0,0,0,0],"split_type":[0,0,0,0,0,0,0,0,0,0,0,0,0,0,0,0,0,0,0,0,0,0,0,0,0,0,0,0,0,0,0,0,0,0,0,0,0,0,0,0,0,0,0,0,0,0,0,0,0,0,0,0,0,0,0,0,0,0,0,0,0,0,0,0,0,0,0,0,0,0,0,0,0,0,0,0,0,0,0,0,0,0,0,0,0,0,0,0,0,0,0,0,0,0,0,0,0,0,0,0,0,0,0,0,0,0,0,0,0,0,0],"sum_hessian":[1.2549E4,6.99E3,5.559E3,4.064E3,2.926E3,4.375E3,1.184E3,1.635E3,2.429E3,1.324E3,1.602E3,3.14E3,1.235E3,9.1E2,2.74E2,3.42E2,1.293E3,1.151E3,1.278E3,3.88E2,9.36E2,3.96E2,1.206E3,6.78E2,2.462E3,8.13E2,4.22E2,3.8E2,5.3E2,1.25E2,1.49E2,1.73E2,1.69E2,4.2E2,8.73E2,4.45E2,7.06E2,7E2,5.78E2,7E0,3.81E2,1E1,9.26E2,1.35E2,2.61E2,3.53E2,8.53E2,2.08E2,4.7E2,1.446E3,1.016E3,4.64E2,3.49E2,4.05E2,1.7E1,1.16E2,2.64E2,7.1E1,4.59E2,9.1E1,3.4E1,1E2,4.9E1,7.2E1,1.01E2,4.9E1,1.2E2,1.83E2,2.37E2,3.02E2,5.71E2,3E1,4.15E2,3.7E1,6.69E2,3.32E2,3.68E2,3.18E2,2.6E2,5.6E1,7.9E1,1.9E1,2.42E2,5.18E2,3.35E2,1.49E2,5.9E1,1.61E2,3.09E2,4.06E2,1.04E3,2.19E2,7.97E2,4.24E2,4E1,2.34E2,1.15E2,4E2,5E0,9E0,8E0,7.5E1,4.1E1,2.23E2,4.1E1,1.68E2,2.91E2,9E0,9.1E1,3.4E1,1.5E1],"tree_param":{"num_deleted":"0","num_feature":"7","num_nodes":"111","size_leaf_vector":"1"}},{"base_weights":[4.829963E-3,-2.1654859E-1,2.5080895E-1,-6.317084E-2,-4.1808608E-1,3.5334408E-1,-1.10812664E-1,1.3244855E-1,-1.4975871E-1,-4.949678E-1,-3.6502594E-1,2.6675755E-1,7.1773076E-1,-1.67895E-1,3.761662E-1,2.385185E-1,-8.435489E-2,-1.18986204E-1,-4.5433313E-2,-2.5378114E-2,-5.0138956E-1,-2.5605467E-1,-3.9830825E-1,4.3929544E-1,1.08934805E-1,6.2408626E-1,9.539407E-2,-7.737268E-2,-2.4039644E-1,5.1731473E-1,1.601217E-1,3.8483095E-1,-1.3921839E-1,-1.992645E-1,1.286317E-1,-3.2157283E-2,-2.2525352E-1,2.0400278E-2,-1.5994696E-2,-3.4158614E-2,-5.2531254E-1,-7.635599E-2,-2.936893E-1,-3.0200693E-1,-4.3248603E-1,6.6354644E-1,3.1516415E-1,4.2009456E-3,2.085449E-1,4.866158E-1,8.261396E-1,6.167382E-3,-1.37549E-1,-1.0788585E-1,-2.7263942E-1,-2.6936175E-3,5.4833925E-1,-1.2164246E-2,3.8469547E-1,6.362751E-2,2.4531715E-2,-2.9501533E-2,-2.306906E-3,-2.877738E-2,5.669354E-3,2.3578595E-2,-1.7052155E-2,2.1047853E-3,-3.195026E-2,-2.5871519E-2,-8.966944E-3,-1.7524779E-2,-5.341164E-2,9.775445E-3,-1.3965626E-2,-0E0,-3.0907122E-2,-1.9310901E-2,-4.038907E-2,-2.75141E-3,-4.408113E-2,1.9836135E-2,7.2832234E-2,4.2150732E-2,4.4875727E-3,1.7183093E-2,-4.6260078E-3,2.8993512E-2,9.176028E-3,5.516053E-2,3.3917315E-2,9.189269E-2,4.500765E-2,1.6442752E-2,-2.8610274E-3,-2.5451959E-3,-2.068606E-2,-1.8403782E-2,1.4983555E-3,-1.39E-2,-3.4404416E-2,5.6503423E-2,-0E0,5.029905E-2,-8.158327E-3],"categories":[],"categories_nodes":[],"categories_segments":[],"categories_sizes":[],"default_left":[0,0,0,0,0,0,0,0,0,0,0,0,0,0,0,0,0,0,0,0,0,0,0,0,0,0,0,0,0,0,0,0,0,0,0,0,0,0,0,0,0,0,0,0,0,0,0,0,0,0,0,0,0,0,0,0,0,0,0,0,0,0,0,0,0,0,0,0,0,0,0,0,0,0,0,0,0,0,0,0,0,0,0,0,0,0,0,0,0,0,0,0,0,0,0,0,0,0,0,0,0,0,0,0,0],"id":8,"left_children":[1,3,5,7,9,11,13,15,17,19,21,23,25,27,29,31,33,35,-1,37,39,41,43,45,47,49,-1,51,53,55,57,59,61,63,65,67,69,-1,-1,-1,71,73,75,77,79,81,83,85,87,89,91,93,95,97,99,-1,101,-1,103,-1,-1,-1,-1,-1,-1,-1,-1,-1,-1,-1,-1,-1,-1,-1,-1,-1,-1,-1,-1,-1,-1,-1,-1,-1,-1,-1,-1,-1,-1,-1,-1,-1,-1,-1,-1,-1,-1,-1,-1,-1,-1,-1,-1,-1,-1],"loss_changes":[6.901344E2,2.0537164E2,2.2329294E2,6.4598015E1,9.069519E0,1.4485419E2,3.745009E1,2.7215076E1,2.3657654E1,2.7807617E0,4.6654205E0,1.02503204E2,1.2177277E1,7.3783913E0,2.7939358E0,4.4442787E1,9.822942E0,2.1971996E1,0E0,1.146531E0,1.6242676E0,2.408432E0,2.2842255E0,4.731424E1,2.0664455E1,1.3277283E1,0E0,2.929924E0,2.1281204E0,1.986145E0,5.350216E0,1.7693398E1,3.7034893E0,6.2617865E0,4.923051E0,2.0958971E1,4.3194427E0,0E0,0E0,0E0,1.2855225E0,1.2254398E0,1.8956337E0,2.8946E0,2.5762177E0,1.6702667E1,3.346279E1,8.58771E0,9.056995E0,1.3203506E0,3.3581543E0,1.4762807E0,2.279014E0,1.6094985E0,3.9531174E0,0E0,1.093401E0,0E0,3.3138928E0,0E0,0E0,0E0,0E0,0E0,0E0,0E0,0E0,0E0,0E0,0E0,0E0,0E0,0E0,0E0,0E0,0E0,0E0,0E0,0E0,0E0,0E0,0E0,0E0,0E0,0E0,0E0,0E0,0E0,0E0,0E0,0E0,0E0,0E0,0E0,0E0,0E0,0E0,0E0,0E0,0E0,0E0,0E0,0E0,0E0,0E0],"parents":[2147483647,0,0,1,1,2,2,3,3,4,4,5,5,6,6,7,7,8,8,9,9,10,10,11,11,12,12,13,13,14,14,15,15,16,16,17,17,19,19,20,20,21,21,22,22,23,23,24,24,25,25,27,27,28,28,29,29,30,30,31,31,32,32,33,33,34,34,35,35,36,36,40,40,41,41,42,42,43,43,44,44,45,45,46,46,47,47,48,48,49,49,50,50,51,51,52,52,53,53,54,54,56,56,58,58],"right_children":[2,4,6,8,10,12,14,16,18,20,22,24,26,28,30,32,34,36,-1,38,40,42,44,46,48,50,-1,52,54,56,58,60,62,64,66,68,70,-1,-1,-1,72,74,76,78,80,82,84,86,88,90,92,94,96,98,100,-1,102,-1,104,-1,-1,-1,-1,-1,-1,-1,-1,-1,-1,-1,-1,-1,-1,-1,-1,-1,-1,-1,-1,-1,-1,-1,-1,-1,-1,-1,-1,-1,-1,-1,-1,-1,-1,-1,-1,-1,-1,-1,-1,-1,-1,-1,-1,-1,-1],"split_conditions":[1.8850994E0,-8.393E1,-8.385E1,8.9172363E-1,1.4884892E0,2.467144E0,2.4753585E0,-1.1826E2,-1.1714E2,8E0,9.016919E-1,1.0123911E0,2.756447E0,1.712879E-1,3.419E1,3.781E1,3.1E1,1.2358134E0,-4.5433313E-2,1.8979514E-1,7.889925E-1,3.414E1,-8.34E1,-8.447E1,2.1321585E0,2.7E1,9.539407E-2,1.0866073E0,9.2288053E-1,3.28E1,3.77E1,3.412E1,1.552643E0,1.7748239E0,-1.1714E2,3.779E1,-1.1816E2,2.0400278E-2,-1.5994696E-2,-3.4158614E-2,1.8672839E-1,-8.36E1,1.7336683E-1,3.469E1,1.662634E-1,1.7E1,3.425E1,-8.447E1,1.1624995E0,-8.416E1,3.76E1,-8.347E1,3.45E1,3.838E1,-8.347E1,-2.6936175E-3,1.6237677E0,-1.2164246E-2,1.5384616E-1,6.362751E-2,2.4531715E-2,-2.9501533E-2,-2.306906E-3,-2.877738E-2,5.669354E-3,2.3578595E-2,-1.7052155E-2,2.1047853E-3,-3.195026E-2,-2.5871519E-2,-8.966944E-3,-1.7524779E-2,-5.341164E-2,9.775445E-3,-1.3965626E-2,-0E0,-3.0907122E-2,-1.9310901E-2,-4.038907E-2,-2.75141E-3,-4.408113E-2,1.9836135E-2,7.2832234E-2,4.2150732E-2,4.4875727E-3,1.7183093E-2,-4.6260078E-3,2.8993512E-2,9.176028E-3,5.516053E-2,3.3917315E-2,9.189269E-2,4.500765E-2,1.6442752E-2,-2.8610274E-3,-2.5451959E-3,-2.068606E-2,-1.8403782E-2,1.4983555E-3,-1.39E-2,-3.4404416E-2,5.6503423E-2,-0E0,5.029905E-2,-8.158327E-3],"split_indices":[0,4,4,1,0,0,0,3,3,6,1,1,0,5,2,2,6,1,0,5,1,2,4,4,0,6,0,1,1,2,2,2,0,0,3,2,3,0,0,0,5,4,5,2,5,6,2,4,1,4,2,4,2,2,4,0,1,0,5,0,0,0,0,0,0,0,0,0,0,0,0,0,0,0,0,0,0,0,0,0,0,0,0,0,0,0,0,0,0,0,0,0,0,0,0,0,0,0,0,0,0,0,0,0,0],"split_type":[0,0,0,0,0,0,0,0,0,0,0,0,0,0,0,0,0,0,0,0,0,0,0,0,0,0,0,0,0,0,0,0,0,0,0,0,0,0,0,0,0,0,0,0,0,0,0,0,0,0,0,0,0,0,0,0,0,0,0,0,0,0,0,0,0,0,0,0,0,0,0,0,0,0,0,0,0,0,0,0,0,0,0,0,0,0,0,0,0,0,0,0,0,0,0,0,0,0,0,0,0,0,0,0,0],"sum_hessian":[1.2653E4,6.658E3,5.995E3,3.791E3,2.867E3,4.673E3,1.322E3,1.158E3,2.633E3,1.129E3,1.738E3,3.792E3,8.81E2,1.191E3,1.31E2,7.8E2,3.78E2,2.407E3,2.26E2,1.8E1,1.111E3,4.34E2,1.304E3,1.8E3,1.992E3,6.6E2,2.21E2,5.45E2,6.46E2,6.8E1,6.3E1,5.64E2,2.16E2,2.49E2,1.29E2,1.337E3,1.07E3,2E0,1.6E1,1.7E2,9.41E2,8.5E1,3.49E2,3.75E2,9.29E2,6.23E2,1.177E3,9.81E2,1.011E3,4.16E2,2.44E2,2.25E2,3.2E2,1.41E2,5.05E2,2E0,6.6E1,2.8E1,3.5E1,1.86E2,3.78E2,8.2E1,1.34E2,1.87E2,6.2E1,9.9E1,3E1,1.133E3,2.04E2,8.45E2,2.25E2,3.1E1,9.1E2,1.7E1,6.8E1,1.5E1,3.34E2,2E2,1.75E2,2.2E1,9.07E2,8.3E1,5.4E2,8.38E2,3.39E2,2.26E2,7.55E2,5.82E2,4.29E2,2.65E2,1.51E2,1.82E2,6.2E1,3.9E1,1.86E2,1.33E2,1.87E2,8.9E1,5.2E1,1.91E2,3.14E2,6.5E1,1E0,2.9E1,6E0],"tree_param":{"num_deleted":"0","num_feature":"7","num_nodes":"105","size_leaf_vector":"1"}},{"base_weights":[3.996129E-3,-1.657081E-1,2.6042727E-1,-2.0028789E-2,-3.7212235E-1,1.2918319E-1,4.9647182E-1,1.1014168E-1,-1.4403576E-1,-4.317229E-1,-3.0325532E-1,2.7772462E-1,-5.6848526E-2,3.8001326E-1,6.984634E-1,1.5320756E-1,-3.2938402E-2,-2.8082818E-1,-8.674643E-2,-1.0002174E-2,-4.4166768E-1,-2.1887726E-1,-3.3615702E-1,6.0647696E-1,1.6826235E-1,3.3823777E-2,-1.7970207E-1,4.954725E-1,1.7820145E-1,7.1945125E-1,6.345933E-2,2.2338463E-1,-1.4401187E-1,-3.429334E-1,7.195075E-2,5.46543E-2,-1.295949E-1,-3.0887797E-1,-4.6673763E-1,-7.828476E-2,-2.8697982E-1,-4.9773954E-2,-2.6681805E-1,1.7674665E-1,7.011843E-1,2.0284322E-1,-2.3149867E-2,2.5940302E-1,-4.318339E-2,-3.7409228E-1,-9.974374E-2,6.657941E-1,2.7593264E-1,2.757884E-1,-0E0,7.494977E-1,2.74696E-1,2.5779758E-2,-1.6278861E-2,7.2814286E-2,1.705256E-2,-0E0,-2.2692533E-2,-0E0,-3.6496926E-2,1.8559484E-2,-1.7280018E-2,3.310254E-2,-1.0174551E-3,-9.790661E-3,-3.4576382E-2,-9.77918E-4,-3.3916708E-2,-3.332438E-2,-4.8822977E-2,2.758286E-3,-1.8188516E-2,2.7237352E-4,-3.0368153E-2,-2.3472233E-2,-3.8994078E-2,-1.733136E-2,2.5420312E-2,7.5874925E-2,1.7137995E-2,3.1498995E-2,1.0628502E-2,6.0096653E-3,5.1496435E-2,1.6040102E-2,-6.837903E-3,-8.137904E-3,-4.5068968E-2,-1.5913188E-2,3.2530818E-3,6.850507E-2,8.53706E-3,3.5298727E-2,1.29254535E-2,5.0077107E-2,1.4900732E-2,-1.6910754E-2,7.002537E-3,6.335198E-2,9.036491E-2,-0E0,5.0059583E-2],"categories":[],"categories_nodes":[],"categories_segments":[],"categories_sizes":[],"default_left":[0,0,0,0,0,0,0,0,0,0,0,0,0,0,0,0,0,0,0,0,0,0,0,0,0,0,0,0,0,0,0,0,0,0,0,0,0,0,0,0,0,0,0,0,0,0,0,0,0,0,0,0,0,0,0,0,0,0,0,0,0,0,0,0,0,0,0,0,0,0,0,0,0,0,0,0,0,0,0,0,0,0,0,0,0,0,0,0,0,0,0,0,0,0,0,0,0,0,0,0,0,0,0,0,0,0,0],"id":9,"left_children":[1,3,5,7,9,11,13,15,17,19,21,23,25,27,29,31,-1,33,35,-1,37,39,41,43,45,47,49,51,53,55,57,59,61,63,65,67,69,71,73,75,77,-1,79,81,83,85,-1,87,89,91,93,95,97,99,101,103,105,-1,-1,-1,-1,-1,-1,-1,-1,-1,-1,-1,-1,-1,-1,-1,-1,-1,-1,-1,-1,-1,-1,-1,-1,-1,-1,-1,-1,-1,-1,-1,-1,-1,-1,-1,-1,-1,-1,-1,-1,-1,-1,-1,-1,-1,-1,-1,-1,-1,-1],"loss_changes":[5.5036914E2,2.2827797E2,1.5480743E2,7.23959E1,1.0860413E1,9.02979E1,3.846869E1,4.166844E1,1.7405487E1,4.472595E0,2.8734741E0,6.3483353E1,1.635881E1,2.5542496E1,7.303406E0,4.2075348E1,0E0,1.51751175E1,1.00822115E1,0E0,3.109192E0,3.795292E0,9.693954E0,1.6075027E1,1.9476685E1,1.4885321E1,8.82085E0,2.4554962E1,7.716902E0,5.175476E0,1.9656386E0,4.116298E1,4.4771385E0,4.409485E0,3.281839E0,7.216674E0,7.896784E0,2.2451248E0,1.3386841E0,2.047083E0,1.760788E0,0E0,1.4712639E0,3.1244428E0,8.779373E0,1.3050514E1,0E0,1.0219292E1,3.2492054E0,3.002428E0,3.7762065E0,3.1379242E0,2.8929615E0,6.7617702E0,2.0951033E0,2.9464417E0,3.7179766E0,0E0,0E0,0E0,0E0,0E0,0E0,0E0,0E0,0E0,0E0,0E0,0E0,0E0,0E0,0E0,0E0,0E0,0E0,0E0,0E0,0E0,0E0,0E0,0E0,0E0,0E0,0E0,0E0,0E0,0E0,0E0,0E0,0E0,0E0,0E0,0E0,0E0,0E0,0E0,0E0,0E0,0E0,0E0,0E0,0E0,0E0,0E0,0E0,0E0,0E0],"parents":[2147483647,0,0,1,1,2,2,3,3,4,4,5,5,6,6,7,7,8,8,9,9,10,10,11,11,12,12,13,13,14,14,15,15,17,17,18,18,20,20,21,21,22,22,23,23,24,24,25,25,26,26,27,27,28,28,29,29,30,30,31,31,32,32,33,33,34,34,35,35,36,36,37,37,38,38,39,39,40,40,42,42,43,43,44,44,45,45,47,47,48,48,49,49,50,50,51,51,52,52,53,53,54,54,55,55,56,56],"right_children":[2,4,6,8,10,12,14,16,18,20,22,24,26,28,30,32,-1,34,36,-1,38,40,42,44,46,48,50,52,54,56,58,60,62,64,66,68,70,72,74,76,78,-1,80,82,84,86,-1,88,90,92,94,96,98,100,102,104,106,-1,-1,-1,-1,-1,-1,-1,-1,-1,-1,-1,-1,-1,-1,-1,-1,-1,-1,-1,-1,-1,-1,-1,-1,-1,-1,-1,-1,-1,-1,-1,-1,-1,-1,-1,-1,-1,-1,-1,-1,-1,-1,-1,-1,-1,-1,-1,-1,-1,-1],"split_conditions":[1.9685019E0,-8.392E1,2.308831E0,1.0275724E0,1.6052725E0,-8.416E1,2.555093E0,-1.1714E2,1.4644794E0,6.091322E-1,3.469E1,8.5982096E-1,3.442E1,-8.416E1,1.3473893E0,3.781E1,-3.2938402E-2,3.4969696E-1,-8.445E1,-1.0002174E-2,1.7E1,-8.358E1,3.724E1,1.8E1,-1.1716E2,-1.1801E2,3.741E1,1.052727E0,3.425E1,-8.35E1,-8.419E1,-1.2234E2,7.950316E-1,-8.453E1,-1.1826E2,-1.2239E2,3.469E1,1.9412574E-1,3.411E1,1.1988966E0,7.312989E-1,-4.9773954E-2,3.948E1,3.297E1,3.787E1,-8.446E1,-2.3149867E-2,-8.405E1,1.5714286E-1,3.487E1,-1.2126E2,-1.1722E2,1.1988966E0,-1.179E2,3.734E1,2.6E1,3.769E1,2.5779758E-2,-1.6278861E-2,7.2814286E-2,1.705256E-2,-0E0,-2.2692533E-2,-0E0,-3.6496926E-2,1.8559484E-2,-1.7280018E-2,3.310254E-2,-1.0174551E-3,-9.790661E-3,-3.4576382E-2,-9.77918E-4,-3.3916708E-2,-3.332438E-2,-4.8822977E-2,2.758286E-3,-1.8188516E-2,2.7237352E-4,-3.0368153E-2,-2.3472233E-2,-3.8994078E-2,-1.733136E-2,2.5420312E-2,7.5874925E-2,1.7137995E-2,3.1498995E-2,1.0628502E-2,6.0096653E-3,5.1496435E-2,1.6040102E-2,-6.837903E-3,-8.137904E-3,-4.5068968E-2,-1.5913188E-2,3.2530818E-3,6.850507E-2,8.53706E-3,3.5298727E-2,1.29254535E-2,5.0077107E-2,1.4900732E-2,-1.6910754E-2,7.002537E-3,6.335198E-2,9.036491E-2,-0E0,5.0059583E-2],"split_indices":[0,4,0,1,0,4,0,3,0,1,2,1,2,4,1,2,0,5,4,0,6,4,2,6,3,3,2,1,2,4,4,3,1,4,3,3,2,5,2,1,1,0,2,2,2,4,0,4,5,2,3,3,1,3,2,6,2,0,0,0,0,0,0,0,0,0,0,0,0,0,0,0,0,0,0,0,0,0,0,0,0,0,0,0,0,0,0,0,0,0,0,0,0,0,0,0,0,0,0,0,0,0,0,0,0,0,0],"split_type":[0,0,0,0,0,0,0,0,0,0,0,0,0,0,0,0,0,0,0,0,0,0,0,0,0,0,0,0,0,0,0,0,0,0,0,0,0,0,0,0,0,0,0,0,0,0,0,0,0,0,0,0,0,0,0,0,0,0,0,0,0,0,0,0,0,0,0,0,0,0,0,0,0,0,0,0,0,0,0,0,0,0,0,0,0,0,0,0,0,0,0,0,0,0,0,0,0,0,0,0,0,0,0,0,0,0,0],"sum_hessian":[1.2625E4,7.597E3,5.028E3,4.463E3,3.134E3,3.244E3,1.784E3,2.174E3,2.289E3,1.644E3,1.49E3,1.804E3,1.44E3,1.153E3,6.31E2,1.988E3,1.86E2,6.59E2,1.63E3,5.4E1,1.59E3,4.48E2,1.042E3,4.37E2,1.367E3,8.28E2,6.12E2,7.21E2,4.32E2,6.08E2,2.3E1,1.613E3,3.75E2,5.63E2,9.6E1,3.73E2,1.257E3,2.8E2,1.31E3,1.58E2,2.9E2,2.9E2,7.52E2,8.6E1,3.51E2,1.265E3,1.02E2,2.08E2,6.2E2,1.64E2,4.48E2,3.92E2,3.29E2,2.76E2,1.56E2,5.61E2,4.7E1,1.4E1,9E0,1.39E2,1.474E3,1.43E2,2.32E2,3.4E1,5.29E2,7E1,2.6E1,6.6E1,3.07E2,1.113E3,1.44E2,3E1,2.5E2,2.11E2,1.099E3,7.7E1,8.1E1,1.3E1,2.77E2,6.26E2,1.26E2,1.1E1,7.5E1,3.11E2,4E1,5.7E2,6.95E2,1.26E2,8.2E1,5.8E1,5.62E2,4.1E1,1.23E2,3.13E2,1.35E2,3.76E2,1.6E1,2.02E2,1.27E2,8.6E1,1.9E2,4.2E1,1.14E2,3.53E2,2.08E2,2.5E1,2.2E1],"tree_param":{"num_deleted":"0","num_feature":"7","num_nodes":"107","size_leaf_vector":"1"}},{"base_weights":[2.3094062E-3,-1.6153555E-1,2.22006E-1,-3.446748E-2,-3.3409753E-1,1.1039353E-1,4.4636768E-1,1.3220082E-1,-1.10739395E-1,-3.7328175E-1,-2.4749675E-1,2.7160466E-1,-3.9284278E-2,3.3613512E-1,6.311782E-1,2.3080371E-1,-7.453405E-2,-8.421624E-2,-3.8004407E-1,-2.7331325E-1,-4.0339082E-1,-1.1446609E-1,-2.8103325E-1,5.00649E-1,1.345869E-1,3.073695E-2,-1.6118102E-1,5.289892E-1,2.1680108E-1,5.3803754E-1,7.915619E-1,6.1721253E-1,8.410831E-2,-1.7888275E-1,9.103225E-2,-1.7668077E-1,-1.4567567E-2,-3.8789626E-2,-0E0,-3.9907504E-2,-2.2253959E-1,-3.1055114E-1,-4.295751E-1,1.2239188E-2,-1.4237328E-1,-0E0,-2.8662574E-1,6.754819E-1,3.5617793E-1,1.7307061E-1,-2.6025113E-1,6.0179856E-2,-1.6157502E-1,-2.4774988E-1,-6.7684114E-2,6.309407E-1,1.9352052E-1,2.640352E-1,1.6420266E-2,5.718421E-1,8.675212E-2,8.040165E-2,-0E0,9.108289E-2,3.7685882E-2,3.4531817E-2,-1.1002477E-2,-4.3209765E-2,-1.0859198E-2,1.9405533E-2,-1.7091325E-2,-2.7652888E-2,-1.6315744E-3,1.1249986E-2,-6.585107E-3,-2.990047E-2,-1.2515034E-2,-1.4665593E-2,-4.252408E-2,-5.386523E-2,-3.5604324E-2,9.502724E-3,-1.696991E-2,-2.2538932E-2,-3.3916105E-2,9.756932E-2,4.279277E-2,5.2560687E-2,4.8645903E-4,3.5874903E-2,1.2903117E-2,-3.0825628E-2,-0E0,-1.041969E-3,2.0372026E-2,-2.960791E-2,2.0056968E-3,-1.4478872E-2,-4.0118963E-2,-1.6385484E-2,1.4853164E-3,-0E0,6.3798346E-2,-6.818432E-3,2.6212087E-2,4.9538698E-2,2.2131171E-2,8.399051E-3,-9.457356E-3,5.988511E-2,4.9874107E-3,-7.009499E-3,3.2804456E-2],"categories":[],"categories_nodes":[],"categories_segments":[],"categories_sizes":[],"default_left":[0,0,0,0,0,0,0,0,0,0,0,0,0,0,0,0,0,0,0,0,0,0,0,0,0,0,0,0,0,0,0,0,0,0,0,0,0,0,0,0,0,0,0,0,0,0,0,0,0,0,0,0,0,0,0,0,0,0,0,0,0,0,0,0,0,0,0,0,0,0,0,0,0,0,0,0,0,0,0,0,0,0,0,0,0,0,0,0,0,0,0,0,0,0,0,0,0,0,0,0,0,0,0,0,0,0,0,0,0,0,0,0,0],"id":10,"left_children":[1,3,5,7,9,11,13,15,17,19,21,23,25,27,29,31,33,35,37,39,41,43,45,47,49,51,53,55,57,59,61,63,65,67,69,71,73,-1,-1,-1,75,77,79,-1,81,-1,83,85,87,89,91,93,95,97,99,101,103,105,107,109,111,-1,-1,-1,-1,-1,-1,-1,-1,-1,-1,-1,-1,-1,-1,-1,-1,-1,-1,-1,-1,-1,-1,-1,-1,-1,-1,-1,-1,-1,-1,-1,-1,-1,-1,-1,-1,-1,-1,-1,-1,-1,-1,-1,-1,-1,-1,-1,-1,-1,-1,-1,-1],"loss_changes":[4.53431E2,1.5765465E2,1.337492E2,5.3109016E1,8.818756E0,8.747148E1,3.3214203E1,2.7011812E1,1.9708405E1,4.4664307E0,3.695118E0,5.339177E1,1.620939E1,2.436641E1,4.1362915E0,4.934203E1,7.6278105E0,1.6707417E1,1.0621376E0,1.8042984E0,1.7326813E0,1.6616635E0,1.1522179E0,1.2879272E1,1.7183918E1,6.7678595E0,5.117872E0,1.2524399E1,6.5381737E0,5.6645355E0,2.313324E0,1.2358147E1,3.4083485E1,3.7779293E0,4.8885283E0,1.7627663E1,9.906391E0,0E0,0E0,0E0,2.1654987E0,6.116535E0,6.7079926E0,0E0,1.5787745E0,0E0,1.1192131E0,1.508168E1,2.1943523E1,7.365511E0,1.2087765E0,1.0844974E1,4.170955E0,4.402561E0,2.9673994E0,1.6386871E0,2.4552155E0,3.9395294E0,1.2163314E0,4.8609314E0,2.1909633E0,0E0,0E0,0E0,0E0,0E0,0E0,0E0,0E0,0E0,0E0,0E0,0E0,0E0,0E0,0E0,0E0,0E0,0E0,0E0,0E0,0E0,0E0,0E0,0E0,0E0,0E0,0E0,0E0,0E0,0E0,0E0,0E0,0E0,0E0,0E0,0E0,0E0,0E0,0E0,0E0,0E0,0E0,0E0,0E0,0E0,0E0,0E0,0E0,0E0,0E0,0E0,0E0],"parents":[2147483647,0,0,1,1,2,2,3,3,4,4,5,5,6,6,7,7,8,8,9,9,10,10,11,11,12,12,13,13,14,14,15,15,16,16,17,17,18,18,19,19,20,20,21,21,22,22,23,23,24,24,25,25,26,26,27,27,28,28,29,29,30,30,31,31,32,32,33,33,34,34,35,35,36,36,40,40,41,41,42,42,44,44,46,46,47,47,48,48,49,49,50,50,51,51,52,52,53,53,54,54,55,55,56,56,57,57,58,58,59,59,60,60],"right_children":[2,4,6,8,10,12,14,16,18,20,22,24,26,28,30,32,34,36,38,40,42,44,46,48,50,52,54,56,58,60,62,64,66,68,70,72,74,-1,-1,-1,76,78,80,-1,82,-1,84,86,88,90,92,94,96,98,100,102,104,106,108,110,112,-1,-1,-1,-1,-1,-1,-1,-1,-1,-1,-1,-1,-1,-1,-1,-1,-1,-1,-1,-1,-1,-1,-1,-1,-1,-1,-1,-1,-1,-1,-1,-1,-1,-1,-1,-1,-1,-1,-1,-1,-1,-1,-1,-1,-1,-1,-1,-1,-1,-1,-1,-1],"split_conditions":[1.9267849E0,-8.393E1,2.308831E0,8.9172363E-1,1.6989409E0,-8.422E1,2.555093E0,-1.1826E2,-1.1716E2,8.7778085E-1,8.993252E-1,9.204392E-1,-8.358E1,1.0076832E0,2.7916303E0,3.417E1,3E1,1.5937691E0,-1.1689E2,-1.2151E2,3.45E1,1.7383966E-1,1.6111112E-1,3.418E1,-1.1717E2,3.795E1,3.741E1,-8.414E1,-8.385E1,-8.368E1,1.6237677E0,-1.1837E2,-8.46E1,4.921085E-1,-1.1714E2,2.861707E-1,-8.443E1,-3.8789626E-2,-0E0,-3.9907504E-2,3.751E1,-8.327E1,3.705E1,1.2239188E-2,3.379E1,-0E0,-8.315E1,-1.1836E2,-8.458E1,-1.2236E2,-8.426E1,3.409E1,3.827E1,3.487E1,-1.2129E2,-8.555E1,-1.2148E2,-8.468E1,1.1790195E0,-1.1723E2,-8.294E1,8.040165E-2,-0E0,9.108289E-2,3.7685882E-2,3.4531817E-2,-1.1002477E-2,-4.3209765E-2,-1.0859198E-2,1.9405533E-2,-1.7091325E-2,-2.7652888E-2,-1.6315744E-3,1.1249986E-2,-6.585107E-3,-2.990047E-2,-1.2515034E-2,-1.4665593E-2,-4.252408E-2,-5.386523E-2,-3.5604324E-2,9.502724E-3,-1.696991E-2,-2.2538932E-2,-3.3916105E-2,9.756932E-2,4.279277E-2,5.2560687E-2,4.8645903E-4,3.5874903E-2,1.2903117E-2,-3.0825628E-2,-0E0,-1.041969E-3,2.0372026E-2,-2.960791E-2,2.0056968E-3,-1.4478872E-2,-4.0118963E-2,-1.6385484E-2,1.4853164E-3,-0E0,6.3798346E-2,-6.818432E-3,2.6212087E-2,4.9538698E-2,2.2131171E-2,8.399051E-3,-9.457356E-3,5.988511E-2,4.9874107E-3,-7.009499E-3,3.2804456E-2],"split_indices":[0,4,0,1,0,4,0,3,3,1,1,1,4,1,0,2,6,0,3,3,2,5,5,2,3,2,2,4,4,4,1,3,4,1,3,5,4,0,0,0,2,4,2,0,2,0,4,3,4,3,4,2,2,2,3,4,3,4,1,3,4,0,0,0,0,0,0,0,0,0,0,0,0,0,0,0,0,0,0,0,0,0,0,0,0,0,0,0,0,0,0,0,0,0,0,0,0,0,0,0,0,0,0,0,0,0,0,0,0,0,0,0,0],"split_type":[0,0,0,0,0,0,0,0,0,0,0,0,0,0,0,0,0,0,0,0,0,0,0,0,0,0,0,0,0,0,0,0,0,0,0,0,0,0,0,0,0,0,0,0,0,0,0,0,0,0,0,0,0,0,0,0,0,0,0,0,0,0,0,0,0,0,0,0,0,0,0,0,0,0,0,0,0,0,0,0,0,0,0,0,0,0,0,0,0,0,0,0,0,0,0,0,0,0,0,0,0,0,0,0,0,0,0,0,0,0,0,0,0],"sum_hessian":[1.2575E4,7.202E3,5.373E3,4.158E3,3.044E3,3.601E3,1.772E3,1.299E3,2.859E3,2.065E3,9.79E2,1.733E3,1.868E3,1.131E3,6.41E2,8.82E2,4.17E2,2.618E3,2.41E2,5.09E2,1.556E3,2.12E2,7.67E2,6.36E2,1.097E3,1.186E3,6.82E2,4.16E2,7.15E2,4.37E2,2.04E2,2.32E2,6.5E2,2.59E2,1.58E2,1.112E3,1.506E3,2.38E2,3E0,1.21E2,3.88E2,3.79E2,1.177E3,1.5E1,1.97E2,1.6E1,7.51E2,2.68E2,3.68E2,1.007E3,9E1,1.039E3,1.47E2,3.4E2,3.42E2,3.1E2,1.06E2,5.72E2,1.43E2,4.02E2,3.5E1,2.01E2,3E0,9E1,1.42E2,2.76E2,3.74E2,4.2E1,2.17E2,1.18E2,4E1,6.77E2,4.35E2,4.24E2,1.082E3,2E2,1.88E2,1.69E2,2.1E2,4.43E2,7.34E2,1.4E1,1.83E2,3.8E2,3.71E2,1.06E2,1.62E2,2.43E2,1.25E2,1.75E2,8.32E2,7.4E1,1.6E1,6.98E2,3.41E2,8.4E1,6.3E1,2.19E2,1.21E2,1.59E2,1.83E2,3E0,3.07E2,1.9E1,8.7E1,6.9E1,5.03E2,9.6E1,4.7E1,3.79E2,2.3E1,2.3E1,1.2E1],"tree_param":{"num_deleted":"0","num_feature":"7","num_nodes":"113","size_leaf_vector":"1"}},{"base_weights":[7.380824E-3,-9.014701E-2,3.1841323E-1,2.5021954E-2,-2.828091E-1,2.3745085E-1,5.3424466E-1,1.1239696E-1,-1.3740042E-1,-3.3531362E-1,-1.8304177E-1,4.0084112E-1,1.309024E-1,4.583732E-1,7.324844E-1,2.9476604E-1,3.2880142E-2,-2.3360574E-1,-9.3368776E-2,-2.9048735E-1,-3.891179E-1,-5.5995055E-2,-2.084903E-1,5.045342E-1,1.3217063E-1,1.7130913E-1,-1.2946804E-2,3.3278868E-1,6.478579E-1,7.509797E-1,2.954737E-3,5.560432E-1,1.7985742E-1,1.1805791E-1,-1.8808061E-1,-3.0758744E-1,-8.6561434E-2,-3.985188E-2,-1.5532506E-1,-2.560371E-1,-3.906979E-2,-1.9396752E-1,-4.1167986E-1,4.901986E-2,-1.5058204E-2,-1.0613238E-1,-2.3574284E-1,5.287579E-1,-0E0,1.7964582E-1,-1.9035725E-2,2.4000987E-1,8.995725E-2,3.6579424E-1,1.3211672E-2,6.680718E-1,-0E0,7.622991E-2,-0E0,6.115338E-2,-9.428072E-3,4.858312E-2,8.528325E-3,-3.4296953E-3,3.8176656E-2,-6.462153E-2,-1.6564492E-2,9.44294E-3,-3.1318724E-2,9.14778E-3,-1.5333096E-2,-2.0984397E-3,-2.8508533E-2,-1.8176006E-2,1.3951387E-3,-0E0,-2.6676862E-2,-2.3266442E-2,1.3557098E-4,-4.1775223E-2,-0E0,2.1611951E-2,-1.3881542E-2,-2.4802698E-2,-0E0,-3.0840173E-2,-1.5871258E-2,3.2531023E-2,5.8516193E-2,2.81757E-2,6.765348E-3,2.6260143E-2,2.24888E-3,2.6810495E-2,4.245266E-3,3.8830645E-2,6.755974E-3,-6.2683336E-3,2.0839585E-2,6.822925E-2,-0E0],"categories":[],"categories_nodes":[],"categories_segments":[],"categories_sizes":[],"default_left":[0,0,0,0,0,0,0,0,0,0,0,0,0,0,0,0,0,0,0,0,0,0,0,0,0,0,0,0,0,0,0,0,0,0,0,0,0,0,0,0,0,0,0,0,0,0,0,0,0,0,0,0,0,0,0,0,0,0,0,0,0,0,0,0,0,0,0,0,0,0,0,0,0,0,0,0,0,0,0,0,0,0,0,0,0,0,0,0,0,0,0,0,0,0,0,0,0,0,0,0,0],"id":11,"left_children":[1,3,5,7,9,11,13,15,17,19,21,23,25,27,29,31,33,35,37,39,41,43,45,47,49,51,-1,53,55,57,-1,59,61,63,65,67,69,71,73,75,-1,77,79,81,-1,83,85,87,-1,89,-1,91,93,95,97,99,-1,-1,-1,-1,-1,-1,-1,-1,-1,-1,-1,-1,-1,-1,-1,-1,-1,-1,-1,-1,-1,-1,-1,-1,-1,-1,-1,-1,-1,-1,-1,-1,-1,-1,-1,-1,-1,-1,-1,-1,-1,-1,-1,-1,-1],"loss_changes":[3.811503E2,2.124081E2,5.0382416E1,8.510907E1,1.7620728E1,3.7295525E1,7.5895233E0,5.6174423E1,8.329491E0,3.8024292E0,3.7022438E0,2.2683289E1,1.4487644E1,1.1474319E1,1.6367874E0,3.3691154E1,5.1589653E1,6.345413E0,4.5871735E0,2.9064865E0,3.078064E0,2.46991E0,2.314598E0,7.844803E0,4.2511477E0,6.037895E0,0E0,3.7179604E0,3.0203705E0,1.6140594E0,0E0,1.38324585E1,2.3235003E1,8.01098E1,5.9397087E0,1.4600067E0,2.983814E0,3.363419E0,3.1689243E0,2.7225418E0,0E0,1.209497E0,2.2592163E0,3.8926785E0,0E0,3.5765898E0,3.560135E0,3.9333954E0,0E0,2.1016107E0,0E0,2.7321053E0,4.331737E0,1.6518059E0,1.0170172E0,1.9738693E0,0E0,0E0,0E0,0E0,0E0,0E0,0E0,0E0,0E0,0E0,0E0,0E0,0E0,0E0,0E0,0E0,0E0,0E0,0E0,0E0,0E0,0E0,0E0,0E0,0E0,0E0,0E0,0E0,0E0,0E0,0E0,0E0,0E0,0E0,0E0,0E0,0E0,0E0,0E0,0E0,0E0,0E0,0E0,0E0,0E0],"parents":[2147483647,0,0,1,1,2,2,3,3,4,4,5,5,6,6,7,7,8,8,9,9,10,10,11,11,12,12,13,13,14,14,15,15,16,16,17,17,18,18,19,19,20,20,21,21,22,22,23,23,24,24,25,25,27,27,28,28,29,29,31,31,32,32,33,33,34,34,35,35,36,36,37,37,38,38,39,39,41,41,42,42,43,43,45,45,46,46,47,47,49,49,51,51,52,52,53,53,54,54,55,55],"right_children":[2,4,6,8,10,12,14,16,18,20,22,24,26,28,30,32,34,36,38,40,42,44,46,48,50,52,-1,54,56,58,-1,60,62,64,66,68,70,72,74,76,-1,78,80,82,-1,84,86,88,-1,90,-1,92,94,96,98,100,-1,-1,-1,-1,-1,-1,-1,-1,-1,-1,-1,-1,-1,-1,-1,-1,-1,-1,-1,-1,-1,-1,-1,-1,-1,-1,-1,-1,-1,-1,-1,-1,-1,-1,-1,-1,-1,-1,-1,-1,-1,-1,-1,-1,-1],"split_conditions":[2.1532767E0,-8.387E1,2.5088644E0,1.1481463E0,1.7716941E0,1.0076832E0,2.7916303E0,-8.445E1,1.5025978E0,1.0640196E0,1.6816817E-1,-8.416E1,-8.347E1,2.6E1,1.7521866E-1,-1.223E2,3.444E1,2.9577464E-1,1.3404849E0,3.933E1,1.8825981E-1,1.0707976E0,-8.356E1,-1.1723E2,2.0542169E-1,1.1451323E0,-1.2946804E-2,-8.368E1,1.1964101E0,1.3659598E0,2.954737E-3,3.2733813E-1,3.413E1,3.403E1,3.731E1,1.671159E-1,-1.1829E2,3.777E1,3.679E1,5.803748E-1,-3.906979E-2,3.7E1,1.7402705E0,2.6E1,-1.5058204E-2,-1.1837E2,3.741E1,2.2E1,-0E0,3.423E1,-1.9035725E-2,3.792E1,-8.454E1,-1.1723E2,-8.28E1,-1.1722E2,-0E0,7.622991E-2,-0E0,6.115338E-2,-9.428072E-3,4.858312E-2,8.528325E-3,-3.4296953E-3,3.8176656E-2,-6.462153E-2,-1.6564492E-2,9.44294E-3,-3.1318724E-2,9.14778E-3,-1.5333096E-2,-2.0984397E-3,-2.8508533E-2,-1.8176006E-2,1.3951387E-3,-0E0,-2.6676862E-2,-2.3266442E-2,1.3557098E-4,-4.1775223E-2,-0E0,2.1611951E-2,-1.3881542E-2,-2.4802698E-2,-0E0,-3.0840173E-2,-1.5871258E-2,3.2531023E-2,5.8516193E-2,2.81757E-2,6.765348E-3,2.6260143E-2,2.24888E-3,2.6810495E-2,4.245266E-3,3.8830645E-2,6.755974E-3,-6.2683336E-3,2.0839585E-2,6.822925E-2,-0E0],"split_indices":[0,4,0,1,0,1,0,4,0,1,5,4,4,6,5,3,2,5,1,2,5,1,4,3,5,1,0,4,1,1,0,5,2,2,2,5,3,2,2,1,0,6,1,6,0,3,2,6,0,2,0,2,4,3,4,3,0,0,0,0,0,0,0,0,0,0,0,0,0,0,0,0,0,0,0,0,0,0,0,0,0,0,0,0,0,0,0,0,0,0,0,0,0,0,0,0,0,0,0,0,0],"split_type":[0,0,0,0,0,0,0,0,0,0,0,0,0,0,0,0,0,0,0,0,0,0,0,0,0,0,0,0,0,0,0,0,0,0,0,0,0,0,0,0,0,0,0,0,0,0,0,0,0,0,0,0,0,0,0,0,0,0,0,0,0,0,0,0,0,0,0,0,0,0,0,0,0,0,0,0,0,0,0,0,0,0,0,0,0,0,0,0,0,0,0,0,0,0,0,0,0,0,0,0,0],"sum_hessian":[1.2538E4,9.548E3,2.99E3,5.978E3,3.57E3,2.193E3,7.97E2,3.893E3,2.085E3,2.317E3,1.253E3,8.51E2,1.342E3,6.04E2,1.93E2,1.17E3,2.723E3,6.34E2,1.451E3,1.309E3,1.008E3,2.21E2,1.032E3,6.05E2,2.46E2,1.168E3,1.74E2,3.83E2,2.21E2,1.86E2,7E0,3.43E2,8.27E2,1.972E3,7.51E2,4.1E2,2.24E2,7.96E2,6.55E2,1.008E3,3.01E2,1.19E2,8.89E2,1.02E2,1.19E2,2.35E2,7.97E2,5.78E2,2.7E1,2.21E2,2.5E1,6.16E2,5.52E2,3.43E2,4E1,2.14E2,7E0,1.83E2,3E0,3.18E2,2.5E1,1.83E2,6.44E2,1.253E3,7.19E2,2E1,7.31E2,1E0,4.09E2,5.6E1,1.68E2,7.53E2,4.3E1,5.71E2,8.4E1,4.2E1,9.66E2,1.02E2,1.7E1,8.76E2,1.3E1,5.6E1,4.6E1,9.3E1,1.42E2,3.88E2,4.09E2,1.44E2,4.34E2,1.03E2,1.18E2,5.52E2,6.4E1,1.02E2,4.5E2,3.13E2,3E1,3E1,1E1,2.09E2,5E0],"tree_param":{"num_deleted":"0","num_feature":"7","num_nodes":"101","size_leaf_vector":"1"}},{"base_weights":[-6.2753324E-4,-1.6768962E-1,1.541587E-1,-6.52703E-2,-2.958424E-1,7.382607E-2,3.6717615E-1,-1.6072473E-1,1.7114941E-2,-2.582982E-1,-3.684805E-1,3.291259E-1,5.6188083E-3,4.0715563E-1,6.699892E-2,-2.5826225E-1,-5.2199077E-2,2.1305586E-1,-3.380394E-2,-1.3478695E-1,-2.78361E-1,-2.8024533E-1,-4.0800396E-1,4.6337277E-1,-1.2793607E-2,1.7826973E-1,-4.7702745E-2,4.7818923E-1,2.4382162E-1,-0E0,2.6607084E-1,-3.5903594E-1,-1.8066213E-1,8.076151E-2,-1.662184E-1,-9.4038315E-2,3.640164E-1,-5.3927697E-2,2.1371931E-1,6.1524957E-3,-1.9952258E-2,-3.704469E-2,-2.3912433E-1,-1.5846673E-2,-3.854556E-2,-4.7526196E-2,-2.988677E-1,1.8323699E-1,5.9695625E-1,5.57747E-2,-1.2234187E-2,2.4294709E-1,-0E0,1.3537762E-2,-1.5359166E-1,6.3029313E-1,4.02641E-1,1.9510013E-1,5.6985486E-1,1.1351249E-1,-1.1981232E-1,3.133918E-2,-8.526579E-3,1.4953037E-2,-3.6939714E-2,-1.7352778E-3,-2.1115758E-2,2.3401117E-2,-6.011843E-3,-2.4250695E-2,-5.3058583E-3,-1.8988898E-2,-0E0,4.0961437E-2,-7.1224817E-3,-3.387373E-3,-2.8352484E-2,4.5669E-2,-0E0,-3.244006E-2,-1.44133745E-2,-3.154805E-2,2.4115712E-4,-2.0911451E-2,2.5534019E-2,9.98729E-2,4.5516048E-2,-3.1607386E-3,2.8834483E-2,-2.8795296E-2,2.6824621E-2,2.2922864E-3,-2.1187445E-2,7.0415325E-3,-1.4761117E-2,-3.3009794E-2,-1.0148918E-2,-0E0,6.466284E-2,3.304417E-2,6.424245E-2,2.1646082E-2,-0E0,6.377116E-2,-1.3270092E-2,-0E0,2.2750743E-2,-2.2477316E-2,-0E0],"categories":[],"categories_nodes":[],"categories_segments":[],"categories_sizes":[],"default_left":[0,0,0,0,0,0,0,0,0,0,0,0,0,0,0,0,0,0,0,0,0,0,0,0,0,0,0,0,0,0,0,0,0,0,0,0,0,0,0,0,0,0,0,0,0,0,0,0,0,0,0,0,0,0,0,0,0,0,0,0,0,0,0,0,0,0,0,0,0,0,0,0,0,0,0,0,0,0,0,0,0,0,0,0,0,0,0,0,0,0,0,0,0,0,0,0,0,0,0,0,0,0,0,0,0,0,0,0,0],"id":12,"left_children":[1,3,5,7,9,11,13,15,17,19,21,23,25,27,29,31,33,35,37,39,41,43,45,47,49,51,53,55,57,59,61,63,65,67,69,71,73,75,77,-1,-1,-1,79,-1,-1,-1,81,83,85,87,-1,89,91,93,95,97,99,101,103,105,107,-1,-1,-1,-1,-1,-1,-1,-1,-1,-1,-1,-1,-1,-1,-1,-1,-1,-1,-1,-1,-1,-1,-1,-1,-1,-1,-1,-1,-1,-1,-1,-1,-1,-1,-1,-1,-1,-1,-1,-1,-1,-1,-1,-1,-1,-1,-1,-1],"loss_changes":[3.2487894E2,7.878836E1,1.1082556E2,2.6727964E1,5.724716E0,8.234254E1,2.0602707E1,1.6184269E1,1.8369675E1,3.6918564E0,1.2372208E0,4.631967E1,3.4839428E1,1.6269531E1,2.9589434E0,5.224102E0,1.1756515E1,1.822875E1,7.1581297E0,3.8063903E0,4.0652313E0,2.8427162E0,2.0481415E0,2.5032028E1,2.3056376E0,1.04849415E1,1.8817303E1,8.793747E0,6.0497856E0,2.5561576E0,1.4263742E0,2.5690727E0,2.1701612E0,7.957367E0,3.1756392E0,1.0771248E0,5.770279E0,5.7978086E0,5.5409627E0,0E0,0E0,0E0,8.095879E0,0E0,0E0,0E0,1.5869637E0,7.624338E0,2.1345749E1,3.9855967E0,0E0,9.603935E0,1.3762208E0,1.6763422E1,8.990793E0,4.0608063E0,9.905762E0,2.0525684E0,4.06863E0,1.2346088E0,1.3208904E0,0E0,0E0,0E0,0E0,0E0,0E0,0E0,0E0,0E0,0E0,0E0,0E0,0E0,0E0,0E0,0E0,0E0,0E0,0E0,0E0,0E0,0E0,0E0,0E0,0E0,0E0,0E0,0E0,0E0,0E0,0E0,0E0,0E0,0E0,0E0,0E0,0E0,0E0,0E0,0E0,0E0,0E0,0E0,0E0,0E0,0E0,0E0,0E0],"parents":[2147483647,0,0,1,1,2,2,3,3,4,4,5,5,6,6,7,7,8,8,9,9,10,10,11,11,12,12,13,13,14,14,15,15,16,16,17,17,18,18,19,19,20,20,21,21,22,22,23,23,24,24,25,25,26,26,27,27,28,28,29,29,30,30,31,31,32,32,33,33,34,34,35,35,36,36,37,37,38,38,42,42,46,46,47,47,48,48,49,49,51,51,52,52,53,53,54,54,55,55,56,56,57,57,58,58,59,59,60,60],"right_children":[2,4,6,8,10,12,14,16,18,20,22,24,26,28,30,32,34,36,38,40,42,44,46,48,50,52,54,56,58,60,62,64,66,68,70,72,74,76,78,-1,-1,-1,80,-1,-1,-1,82,84,86,88,-1,90,92,94,96,98,100,102,104,106,108,-1,-1,-1,-1,-1,-1,-1,-1,-1,-1,-1,-1,-1,-1,-1,-1,-1,-1,-1,-1,-1,-1,-1,-1,-1,-1,-1,-1,-1,-1,-1,-1,-1,-1,-1,-1,-1,-1,-1,-1,-1,-1,-1,-1,-1,-1,-1,-1],"split_conditions":[1.8328665E0,-8.392E1,2.308831E0,1.585213E0,1.1367122E0,8.630521E-1,-8.37E1,2.7650505E-1,7.5849354E-1,3.412E1,3.487E1,-8.418E1,-8.443E1,1.1451323E0,3.856E1,1.4081548E0,-1.1827E2,2.5E1,5.1E1,-8.355E1,3.705E1,-8.327E1,3.733E1,2.4E1,-1.18E2,1.1790195E0,3.45E1,-8.45E1,2.835648E0,3.462E1,3.922E1,1.787649E-1,-8.447E1,3.412E1,-8.422E1,5.957663E-1,-8.416E1,-1.1716E2,-8.448E1,6.1524957E-3,-1.9952258E-2,-3.704469E-2,-1.214E2,-1.5846673E-2,-3.854556E-2,-4.7526196E-2,1.6237677E0,3.297E1,6.520672E-1,-1.1832E2,-1.2234187E-2,-8.549E1,-1.1826E2,-1.1751E2,3.736E1,-8.555E1,2.692211E0,1.7925736E-1,3.6E1,3.412E1,3.691E1,3.133918E-2,-8.526579E-3,1.4953037E-2,-3.6939714E-2,-1.7352778E-3,-2.1115758E-2,2.3401117E-2,-6.011843E-3,-2.4250695E-2,-5.3058583E-3,-1.8988898E-2,-0E0,4.0961437E-2,-7.1224817E-3,-3.387373E-3,-2.8352484E-2,4.5669E-2,-0E0,-3.244006E-2,-1.44133745E-2,-3.154805E-2,2.4115712E-4,-2.0911451E-2,2.5534019E-2,9.98729E-2,4.5516048E-2,-3.1607386E-3,2.8834483E-2,-2.8795296E-2,2.6824621E-2,2.2922864E-3,-2.1187445E-2,7.0415325E-3,-1.4761117E-2,-3.3009794E-2,-1.0148918E-2,-0E0,6.466284E-2,3.304417E-2,6.424245E-2,2.1646082E-2,-0E0,6.377116E-2,-1.3270092E-2,-0E0,2.2750743E-2,-2.2477316E-2,-0E0],"split_indices":[0,4,0,0,1,1,4,5,1,2,2,4,4,1,2,0,3,6,6,4,2,4,2,6,3,1,2,4,0,2,2,5,4,2,4,1,4,3,4,0,0,0,3,0,0,0,1,2,1,3,0,4,3,3,2,4,0,5,6,2,2,0,0,0,0,0,0,0,0,0,0,0,0,0,0,0,0,0,0,0,0,0,0,0,0,0,0,0,0,0,0,0,0,0,0,0,0,0,0,0,0,0,0,0,0,0,0,0,0],"split_type":[0,0,0,0,0,0,0,0,0,0,0,0,0,0,0,0,0,0,0,0,0,0,0,0,0,0,0,0,0,0,0,0,0,0,0,0,0,0,0,0,0,0,0,0,0,0,0,0,0,0,0,0,0,0,0,0,0,0,0,0,0,0,0,0,0,0,0,0,0,0,0,0,0,0,0,0,0,0,0,0,0,0,0,0,0,0,0,0,0,0,0,0,0,0,0,0,0,0,0,0,0,0,0,0,0,0,0,0,0],"sum_hessian":[1.2543E4,6.035E3,6.508E3,3.367E3,2.668E3,4.739E3,1.769E3,1.561E3,1.806E3,1.798E3,8.7E2,9.88E2,3.751E3,1.555E3,2.14E2,8.1E2,7.51E2,3.7E2,1.436E3,2.69E2,1.529E3,3.02E2,5.68E2,7.09E2,2.79E2,8.84E2,2.867E3,1.066E3,4.89E2,1.68E2,4.6E1,3.31E2,4.79E2,3.44E2,4.07E2,1.21E2,2.49E2,1.339E3,9.7E1,6.3E1,2.06E2,4.24E2,1.105E3,1.56E2,1.46E2,3.25E2,2.43E2,2.39E2,4.7E2,1.69E2,1.1E2,6.49E2,2.35E2,1.816E3,1.051E3,3.25E2,7.41E2,4.42E2,4.7E1,8.7E1,8.1E1,4.4E1,2E0,2E0,3.29E2,8.3E1,3.96E2,1.65E2,1.79E2,2.31E2,1.76E2,5.2E1,6.9E1,2.28E2,2.1E1,1.246E3,9.3E1,4E1,5.7E1,5.64E2,5.41E2,2.33E2,1E1,3.2E1,2.07E2,1.05E2,3.65E2,1.26E2,4.3E1,2.3E1,6.26E2,2.17E2,1.8E1,1.351E3,4.65E2,2.23E2,8.28E2,7E0,3.18E2,5.91E2,1.5E2,4.01E2,4.1E1,4.5E1,2E0,4.9E1,3.8E1,4.2E1,3.9E1],"tree_param":{"num_deleted":"0","num_feature":"7","num_nodes":"109","size_leaf_vector":"1"}},{"base_weights":[4.9933046E-3,-1.011309E-1,2.0474398E-1,-8.0106305E-3,-2.3870556E-1,1.4923362E-1,4.5553648E-1,2.143242E-1,-5.328644E-2,-3.2145828E-1,-2.0700529E-1,3.1413317E-1,6.1807383E-2,4.0203354E-1,6.3791233E-1,2.9114997E-2,4.0827855E-1,-2.9766457E-2,-3.004352E-1,-0E0,-3.301404E-2,-1.5798847E-3,-2.164601E-1,4.026402E-1,8.746033E-2,2.279462E-1,1.8280122E-2,3.0338413E-1,5.502592E-1,6.6731024E-1,2.05436E-2,1.7524734E-1,-1.5090628E-1,-4.063146E-2,5.068672E-1,1.777103E-2,-1.4686225E-1,-3.0796617E-2,-0E0,2.337665E-2,-5.2393535E-3,-1.805505E-1,-2.7397665E-1,4.177521E-1,-1.3547773E-2,1.4290875E-1,-1.4414343E-2,-1.1915076E-2,2.4987453E-1,5.4016743E-2,-1.2688863E-1,3.9904264E-1,1.6757451E-2,-0E0,5.683617E-1,6.7525245E-2,-0E0,2.539072E-2,-1.7273426E-2,5.416392E-2,2.028624E-3,-4.7460016E-2,-5.9445826E-3,-2.4475804E-2,1.1079609E-2,5.3841956E-2,-1.0902133E-2,1.0542886E-2,-1.0087253E-2,-0E0,-1.7178746E-2,-1.3960533E-2,-2.4043327E-2,-1.1886343E-2,-2.9440165E-2,5.4819416E-2,3.1208834E-2,2.7294705E-2,2.218498E-3,3.2663405E-2,1.4616907E-2,2.1375393E-2,-4.9705774E-5,-1.6543904E-2,-0E0,4.270508E-2,-0E0,6.3364275E-2,2.8978039E-2],"categories":[],"categories_nodes":[],"categories_segments":[],"categories_sizes":[],"default_left":[0,0,0,0,0,0,0,0,0,0,0,0,0,0,0,0,0,0,0,0,0,0,0,0,0,0,0,0,0,0,0,0,0,0,0,0,0,0,0,0,0,0,0,0,0,0,0,0,0,0,0,0,0,0,0,0,0,0,0,0,0,0,0,0,0,0,0,0,0,0,0,0,0,0,0,0,0,0,0,0,0,0,0,0,0,0,0,0,0],"id":13,"left_children":[1,3,5,7,9,11,13,15,17,19,21,23,25,27,29,31,33,35,37,-1,-1,39,41,43,45,47,49,51,53,55,57,59,61,63,65,67,69,-1,-1,-1,-1,71,73,75,-1,77,-1,-1,79,81,83,85,-1,-1,87,-1,-1,-1,-1,-1,-1,-1,-1,-1,-1,-1,-1,-1,-1,-1,-1,-1,-1,-1,-1,-1,-1,-1,-1,-1,-1,-1,-1,-1,-1,-1,-1,-1,-1],"loss_changes":[2.6764346E2,1.0528389E2,5.9719772E1,4.9560337E1,7.5180206E0,5.141597E1,4.0649414E0,2.9330944E1,2.3448277E1,2.4360962E0,4.513756E0,2.4094978E1,1.6872616E1,6.820656E0,2.0245018E0,1.18375435E1,1.850792E1,2.1107267E1,1.0437565E0,0E0,0E0,1.4000802E0,3.8549194E0,8.069443E0,4.892112E0,4.135132E0,9.831817E0,4.0911407E0,1.9324112E0,1.122139E0,1.376734E0,1.3522316E1,5.0752573E0,2.8779755E0,7.487503E0,2.7983004E1,3.9377365E0,0E0,0E0,0E0,0E0,2.8935165E0,1.9741135E0,9.392517E0,0E0,4.401024E0,0E0,0E0,2.7433758E0,1.3572209E1,1.8383718E0,2.3805008E0,0E0,0E0,1.4231949E0,0E0,0E0,0E0,0E0,0E0,0E0,0E0,0E0,0E0,0E0,0E0,0E0,0E0,0E0,0E0,0E0,0E0,0E0,0E0,0E0,0E0,0E0,0E0,0E0,0E0,0E0,0E0,0E0,0E0,0E0,0E0,0E0,0E0,0E0],"parents":[2147483647,0,0,1,1,2,2,3,3,4,4,5,5,6,6,7,7,8,8,9,9,10,10,11,11,12,12,13,13,14,14,15,15,16,16,17,17,18,18,21,21,22,22,23,23,24,24,25,25,26,26,27,27,28,28,29,29,30,30,31,31,32,32,33,33,34,34,35,35,36,36,41,41,42,42,43,43,45,45,48,48,49,49,50,50,51,51,54,54],"right_children":[2,4,6,8,10,12,14,16,18,20,22,24,26,28,30,32,34,36,38,-1,-1,40,42,44,46,48,50,52,54,56,58,60,62,64,66,68,70,-1,-1,-1,-1,72,74,76,-1,78,-1,-1,80,82,84,86,-1,-1,88,-1,-1,-1,-1,-1,-1,-1,-1,-1,-1,-1,-1,-1,-1,-1,-1,-1,-1,-1,-1,-1,-1,-1,-1,-1,-1,-1,-1,-1,-1,-1,-1,-1,-1],"split_conditions":[2.017771E0,-8.387E1,2.5088644E0,7.5849354E-1,1.4337363E0,9.776597E-1,2.835648E0,3E1,-1.1714E2,1.8672839E-1,1.6666667E-1,-8.414E1,-8.449E1,2.6E1,5.1E1,-1.1834E2,1.4825317E0,1.2795264E0,-1.1689E2,-0E0,-3.301404E-2,1.4839491E-1,2.9E1,-1.1716E2,2.0585458E-1,-8.549E1,-8.35E1,-8.416E1,-8.488E1,1.874363E0,2.9944782E0,3.418E1,4.1985384E-1,3.405E1,-1.1714E2,3.462E1,3.388E1,-3.0796617E-2,-0E0,2.337665E-2,-5.2393535E-3,1.0640196E0,-8.368E1,3.417E1,-1.3547773E-2,3.423E1,-1.4414343E-2,-1.1915076E-2,1.7925736E-1,1.6049382E-1,2.2962797E0,-1.1719E2,1.6757451E-2,-0E0,3.76E1,6.7525245E-2,-0E0,2.539072E-2,-1.7273426E-2,5.416392E-2,2.028624E-3,-4.7460016E-2,-5.9445826E-3,-2.4475804E-2,1.1079609E-2,5.3841956E-2,-1.0902133E-2,1.0542886E-2,-1.0087253E-2,-0E0,-1.7178746E-2,-1.3960533E-2,-2.4043327E-2,-1.1886343E-2,-2.9440165E-2,5.4819416E-2,3.1208834E-2,2.7294705E-2,2.218498E-3,3.2663405E-2,1.4616907E-2,2.1375393E-2,-4.9705774E-5,-1.6543904E-2,-0E0,4.270508E-2,-0E0,6.3364275E-2,2.8978039E-2],"split_indices":[0,4,0,1,0,1,0,6,3,5,5,4,4,6,6,3,0,1,3,0,0,5,6,3,5,4,4,4,4,1,0,2,1,2,3,2,2,0,0,0,0,1,4,2,0,2,0,0,5,5,0,3,0,0,2,0,0,0,0,0,0,0,0,0,0,0,0,0,0,0,0,0,0,0,0,0,0,0,0,0,0,0,0,0,0,0,0,0,0],"split_type":[0,0,0,0,0,0,0,0,0,0,0,0,0,0,0,0,0,0,0,0,0,0,0,0,0,0,0,0,0,0,0,0,0,0,0,0,0,0,0,0,0,0,0,0,0,0,0,0,0,0,0,0,0,0,0,0,0,0,0,0,0,0,0,0,0,0,0,0,0,0,0,0,0,0,0,0,0,0,0,0,0,0,0,0,0,0,0,0,0],"sum_hessian":[1.2601E4,8.229E3,4.372E3,4.918E3,3.311E3,3.596E3,7.76E2,8.22E2,4.096E3,8.83E2,2.428E3,1.233E3,2.363E3,6.29E2,1.47E2,4.29E2,3.93E2,3.754E3,3.42E2,2.4E1,8.59E2,1.12E2,2.316E3,8.78E2,3.55E2,4.77E2,1.886E3,4E2,2.29E2,1.38E2,9E0,2.4E2,1.89E2,7E1,3.23E2,2.67E3,1.084E3,3.36E2,6E0,1E1,1.02E2,1.462E3,8.54E2,8.58E2,2E1,2.93E2,6.2E1,2.3E1,4.54E2,1.524E3,3.62E2,2.19E2,1.81E2,9E0,2.2E2,1.37E2,1E0,5E0,4E0,6.2E1,1.78E2,3E1,1.59E2,3E1,4E1,3.1E2,1.3E1,1.541E3,1.129E3,1.61E2,9.23E2,8.98E2,5.64E2,1.13E2,7.41E2,3.61E2,4.97E2,1.31E2,1.62E2,2.43E2,2.11E2,3.85E2,1.139E3,2.76E2,8.6E1,2.03E2,1.6E1,1.65E2,5.5E1],"tree_param":{"num_deleted":"0","num_feature":"7","num_nodes":"89","size_leaf_vector":"1"}},{"base_weights":[1.0412285E-3,-1.0302317E-1,1.606283E-1,-2.0533195E-2,-2.2253439E-1,9.200184E-2,3.2823536E-1,1.3063481E-1,-6.6758506E-2,-1.5116319E-1,-2.4967486E-1,3.3538586E-1,4.336662E-2,4.895271E-1,2.6442418E-1,-3.4088016E-2,2.5381213E-1,-4.368953E-2,-2.6962837E-2,-8.5458875E-2,-1.8337E-1,-1.6334571E-1,-2.7528456E-1,9.411948E-3,4.510528E-1,1.7690493E-1,-5.8876155E-3,5.646017E-1,2.0234755E-1,1.826695E-1,4.5924357E-1,6.0904276E-2,-1.5324898E-1,-2.5948923E-2,3.2790136E-1,8.141344E-2,-8.1031084E-2,1.01760495E-4,-1.2146576E-2,-2.5428776E-2,-1.2379958E-1,-4.8408907E-2,-2.6568338E-1,-3.754477E-2,-2.219635E-1,1.306671E-1,-8.346084E-2,5.150534E-1,1.388001E-1,3.4831192E-2,1.1844697E-1,4.4458505E-2,-1.06695205E-1,5.767691E-1,-2.7986306E-3,8.4925E-3,4.260631E-2,4.1731438E-1,1.4908452E-1,4.8262563E-1,-0E0,4.89836E-2,-2.814452E-3,-3.2922592E-2,-8.452374E-3,-1.7561153E-2,5.4724375E-3,3.526527E-2,-1.5182788E-2,3.255899E-2,2.4458228E-4,-3.90586E-3,-2.4307104E-2,-2.0692369E-2,-5.0171567E-3,5.2342843E-4,-1.3926643E-2,-3.5757844E-3,-2.9699827E-2,-1.7081667E-2,-3.1909503E-2,4.3345153E-2,1.2887403E-3,4.708099E-3,-1.6508304E-2,5.4008067E-2,-6.152917E-3,-8.791023E-4,2.12303E-2,3.748366E-2,3.9487253E-3,-2.3767287E-3,1.50827095E-2,-4.455078E-3,-2.9871777E-2,6.476328E-2,3.1734057E-2,4.757263E-2,-0E0,2.177412E-2,5.209469E-3,2.0368977E-2,5.6046348E-2],"categories":[],"categories_nodes":[],"categories_segments":[],"categories_sizes":[],"default_left":[0,0,0,0,0,0,0,0,0,0,0,0,0,0,0,0,0,0,0,0,0,0,0,0,0,0,0,0,0,0,0,0,0,0,0,0,0,0,0,0,0,0,0,0,0,0,0,0,0,0,0,0,0,0,0,0,0,0,0,0,0,0,0,0,0,0,0,0,0,0,0,0,0,0,0,0,0,0,0,0,0,0,0,0,0,0,0,0,0,0,0,0,0,0,0,0,0,0,0,0,0,0,0],"id":14,"left_children":[1,3,5,7,9,11,13,15,17,19,21,23,25,27,29,31,33,35,-1,37,39,41,43,45,47,49,51,53,55,57,59,61,63,65,67,69,71,-1,-1,-1,73,75,77,-1,79,81,83,85,87,-1,89,91,93,95,-1,-1,-1,97,99,101,-1,-1,-1,-1,-1,-1,-1,-1,-1,-1,-1,-1,-1,-1,-1,-1,-1,-1,-1,-1,-1,-1,-1,-1,-1,-1,-1,-1,-1,-1,-1,-1,-1,-1,-1,-1,-1,-1,-1,-1,-1,-1,-1],"loss_changes":[2.106546E2,7.5345474E1,5.68927E1,3.1852713E1,5.2789E0,4.1757698E1,1.2844452E1,2.1915222E1,1.5948885E1,1.4726295E0,4.064041E0,2.1742683E1,1.9860796E1,6.585182E0,1.5450005E1,5.4039106E0,1.3113583E1,1.4822981E1,0E0,1.1305385E0,1.77005E0,5.9795437E0,7.6699524E0,2.0369003E0,7.284477E0,7.257E0,1.1224515E1,2.9021149E0,1.7541032E0,4.871586E0,3.6668854E0,1.0492279E1,1.8719168E0,1.8469492E0,6.5426064E0,1.3643473E1,1.624511E1,0E0,0E0,0E0,1.7444577E0,1.4767671E0,1.5914707E0,0E0,4.6434097E0,2.3864112E0,1.2186154E0,5.904747E0,1.1985295E0,0E0,1.2090443E1,1.0765504E1,8.342233E0,2.495041E0,0E0,0E0,0E0,1.8225021E0,4.224762E0,4.412369E0,0E0,0E0,0E0,0E0,0E0,0E0,0E0,0E0,0E0,0E0,0E0,0E0,0E0,0E0,0E0,0E0,0E0,0E0,0E0,0E0,0E0,0E0,0E0,0E0,0E0,0E0,0E0,0E0,0E0,0E0,0E0,0E0,0E0,0E0,0E0,0E0,0E0,0E0,0E0,0E0,0E0,0E0,0E0],"parents":[2147483647,0,0,1,1,2,2,3,3,4,4,5,5,6,6,7,7,8,8,9,9,10,10,11,11,12,12,13,13,14,14,15,15,16,16,17,17,19,19,20,20,21,21,22,22,23,23,24,24,25,25,26,26,27,27,28,28,29,29,30,30,31,31,32,32,33,33,34,34,35,35,36,36,40,40,41,41,42,42,44,44,45,45,46,46,47,47,48,48,50,50,51,51,52,52,53,53,57,57,58,58,59,59],"right_children":[2,4,6,8,10,12,14,16,18,20,22,24,26,28,30,32,34,36,-1,38,40,42,44,46,48,50,52,54,56,58,60,62,64,66,68,70,72,-1,-1,-1,74,76,78,-1,80,82,84,86,88,-1,90,92,94,96,-1,-1,-1,98,100,102,-1,-1,-1,-1,-1,-1,-1,-1,-1,-1,-1,-1,-1,-1,-1,-1,-1,-1,-1,-1,-1,-1,-1,-1,-1,-1,-1,-1,-1,-1,-1,-1,-1,-1,-1,-1,-1,-1,-1,-1,-1,-1,-1],"split_conditions":[1.9685019E0,-8.387E1,2.3670447E0,8.171998E-1,1.8E1,8.4986526E-1,9.754018E-1,2.7E1,-1.1721E2,-8.315E1,3.45E1,1.7E1,-8.443E1,-8.414E1,2.6569154E0,-1.1831E2,1.5206907E0,-8.445E1,-2.6962837E-2,1.952862E-1,3.724E1,-8.332E1,3.705E1,-1.1829E2,3.787E1,-1.2219E2,3.462E1,2.9944782E0,2.7213233E0,-8.468E1,1.3798635E0,3.41E1,4.921085E-1,1.2976131E0,-1.1714E2,-1.223E2,3.469E1,1.01760495E-4,-1.2146576E-2,-2.5428776E-2,-1.2133E2,1.2586312E0,8.34726E-1,-3.754477E-2,3.9E1,3.419E1,2.0445609E-1,-1.1716E2,2.017771E0,3.4831192E-2,3.415E1,3.399E1,-1.2071E2,3.767E1,-2.7986306E-3,8.4925E-3,4.260631E-2,-1.1918E2,3.425E1,3.373E1,-0E0,4.89836E-2,-2.814452E-3,-3.2922592E-2,-8.452374E-3,-1.7561153E-2,5.4724375E-3,3.526527E-2,-1.5182788E-2,3.255899E-2,2.4458228E-4,-3.90586E-3,-2.4307104E-2,-2.0692369E-2,-5.0171567E-3,5.2342843E-4,-1.3926643E-2,-3.5757844E-3,-2.9699827E-2,-1.7081667E-2,-3.1909503E-2,4.3345153E-2,1.2887403E-3,4.708099E-3,-1.6508304E-2,5.4008067E-2,-6.152917E-3,-8.791023E-4,2.12303E-2,3.748366E-2,3.9487253E-3,-2.3767287E-3,1.50827095E-2,-4.455078E-3,-2.9871777E-2,6.476328E-2,3.1734057E-2,4.757263E-2,-0E0,2.177412E-2,5.209469E-3,2.0368977E-2,5.6046348E-2],"split_indices":[0,4,0,1,6,1,1,6,3,4,2,6,4,4,0,3,0,4,0,5,2,4,2,3,2,3,2,0,0,4,1,2,1,0,3,3,2,0,0,0,3,1,1,0,2,2,5,3,0,0,2,2,3,2,0,0,0,3,2,2,0,0,0,0,0,0,0,0,0,0,0,0,0,0,0,0,0,0,0,0,0,0,0,0,0,0,0,0,0,0,0,0,0,0,0,0,0,0,0,0,0,0,0],"split_type":[0,0,0,0,0,0,0,0,0,0,0,0,0,0,0,0,0,0,0,0,0,0,0,0,0,0,0,0,0,0,0,0,0,0,0,0,0,0,0,0,0,0,0,0,0,0,0,0,0,0,0,0,0,0,0,0,0,0,0,0,0,0,0,0,0,0,0,0,0,0,0,0,0,0,0,0,0,0,0,0,0,0,0,0,0,0,0,0,0,0,0,0,0,0,0,0,0,0,0,0,0,0,0],"sum_hessian":[1.2661E4,7.662E3,4.999E3,4.545E3,3.117E3,3.562E3,1.437E3,1.055E3,3.49E3,8.87E2,2.23E3,5.8E2,2.982E3,3.84E2,1.053E3,4.51E2,6.04E2,3.149E3,3.41E2,3.14E2,5.73E2,5.36E2,1.694E3,1.57E2,4.23E2,8.02E2,2.18E3,2.94E2,9E1,7.59E2,2.94E2,2.49E2,2.02E2,1.25E2,4.79E2,7.15E2,2.434E3,8.7E1,2.27E2,2.39E2,3.34E2,2.64E2,2.72E2,5.61E2,1.133E3,7.1E1,8.6E1,3.43E2,8E1,1.87E2,6.15E2,1.451E3,7.29E2,2.9E2,4E0,7.1E1,1.9E1,7.7E1,6.82E2,2.81E2,1.3E1,3.7E1,2.12E2,4.2E1,1.6E2,4.4E1,8.1E1,4.6E2,1.9E1,1.64E2,5.51E2,1.948E3,4.86E2,1.42E2,1.92E2,1.65E2,9.9E1,3.9E1,2.33E2,7.67E2,3.66E2,1E1,6.1E1,3E1,5.6E1,3.31E2,1.2E1,2.5E1,5.5E1,1.33E2,4.82E2,8.83E2,5.68E2,5.64E2,1.65E2,2.13E2,7.7E1,6.5E1,1.2E1,3.86E2,2.96E2,7.2E1,2.09E2],"tree_param":{"num_deleted":"0","num_feature":"7","num_nodes":"103","size_leaf_vector":"1"}},{"base_weights":[1.3995799E-3,-5.5793867E-2,2.5475034E-1,1.7934684E-2,-1.8561758E-1,2.9512623E-1,5.3084165E-2,7.905937E-2,-9.6222706E-2,-1.042755E-1,-2.19592E-1,2.6531664E-1,5.054427E-2,-1.8771688E-2,2.4011153E-1,1.09135486E-1,-1.6701452E-1,-2.1284418E-1,-6.8540625E-2,2.6339784E-2,-1.1080875E-1,-1.5102556E-1,-2.4663316E-1,3.936676E-1,2.0651974E-1,-5.359844E-2,7.859299E-3,8.13252E-2,3.703726E-1,1.4238667E-1,-1.2202538E-1,-4.981934E-2,-2.3378195E-1,-2.7806443E-1,-2.8498197E-2,-2.1308515E-2,-1.3944098E-1,-1.48279285E-2,-1.378074E-1,-8.007801E-2,-1.9071177E-2,-1.6401817E-1,-2.718051E-1,5.531285E-1,2.8500712E-1,1.606018E-1,4.2055753E-1,1.5469857E-3,-1.4879311E-2,-1.5268387E-2,2.5326103E-2,4.6330195E-2,4.0135882E-4,5.3245652E-2,1.1715889E-2,-0E0,-2.7511967E-2,-1.16716875E-2,1.8670943E-2,1.7590661E-3,-2.4695922E-2,9.160824E-3,-2.8543785E-2,1.5938694E-2,-8.111562E-3,-2.7179945E-4,-2.3828737E-2,1.8830044E-2,-1.5640268E-2,1.1210541E-2,-1.5675467E-2,-8.365044E-3,-1.8159186E-2,2.193308E-3,-1.1925781E-2,-5.1743938E-3,-2.5955876E-2,-3.545166E-2,-2.2272792E-2,5.813044E-2,-0E0,4.014149E-2,8.395332E-3,2.817188E-2,1.1348913E-2,5.414295E-2,1.3946454E-2],"categories":[],"categories_nodes":[],"categories_segments":[],"categories_sizes":[],"default_left":[0,0,0,0,0,0,0,0,0,0,0,0,0,0,0,0,0,0,0,0,0,0,0,0,0,0,0,0,0,0,0,0,0,0,0,0,0,0,0,0,0,0,0,0,0,0,0,0,0,0,0,0,0,0,0,0,0,0,0,0,0,0,0,0,0,0,0,0,0,0,0,0,0,0,0,0,0,0,0,0,0,0,0,0,0,0,0],"id":15,"left_children":[1,3,5,7,9,11,13,15,17,19,21,23,-1,25,27,29,31,33,35,-1,37,39,41,43,45,47,-1,49,51,53,55,57,59,61,63,65,67,69,71,73,-1,75,77,79,81,83,85,-1,-1,-1,-1,-1,-1,-1,-1,-1,-1,-1,-1,-1,-1,-1,-1,-1,-1,-1,-1,-1,-1,-1,-1,-1,-1,-1,-1,-1,-1,-1,-1,-1,-1,-1,-1,-1,-1,-1,-1],"loss_changes":[1.832629E2,9.882791E1,1.8467041E1,4.5945152E1,9.777298E0,1.0019592E1,5.7092123E0,3.190406E1,6.9720497E0,2.8512526E0,4.0857925E0,1.15670395E1,0E0,1.027617E0,1.6670866E0,2.9679039E1,3.2619457E0,4.7600784E0,6.08514E0,0E0,2.726656E0,1.7642441E0,2.9697495E0,6.66481E0,1.0596195E1,1.6883012E0,0E0,3.2634492E0,1.4887271E0,3.1810669E1,8.915293E0,3.1226885E0,1.233407E0,1.3030186E0,1.3065423E0,4.371162E0,4.3707466E0,4.994417E0,1.6315994E0,1.3424977E0,0E0,4.563781E0,4.2957993E0,3.6254807E0,7.0414543E0,5.0653954E0,5.4611816E0,0E0,0E0,0E0,0E0,0E0,0E0,0E0,0E0,0E0,0E0,0E0,0E0,0E0,0E0,0E0,0E0,0E0,0E0,0E0,0E0,0E0,0E0,0E0,0E0,0E0,0E0,0E0,0E0,0E0,0E0,0E0,0E0,0E0,0E0,0E0,0E0,0E0,0E0,0E0,0E0],"parents":[2147483647,0,0,1,1,2,2,3,3,4,4,5,5,6,6,7,7,8,8,9,9,10,10,11,11,13,13,14,14,15,15,16,16,17,17,18,18,20,20,21,21,22,22,23,23,24,24,25,25,27,27,28,28,29,29,30,30,31,31,32,32,33,33,34,34,35,35,36,36,37,37,38,38,39,39,41,41,42,42,43,43,44,44,45,45,46,46],"right_children":[2,4,6,8,10,12,14,16,18,20,22,24,-1,26,28,30,32,34,36,-1,38,40,42,44,46,48,-1,50,52,54,56,58,60,62,64,66,68,70,72,74,-1,76,78,80,82,84,86,-1,-1,-1,-1,-1,-1,-1,-1,-1,-1,-1,-1,-1,-1,-1,-1,-1,-1,-1,-1,-1,-1,-1,-1,-1,-1,-1,-1,-1,-1,-1,-1,-1,-1,-1,-1,-1,-1,-1,-1],"split_conditions":[2.2424316E0,-8.387E1,-8.385E1,1.1451323E0,1.8672839E-1,2.756447E0,2.5088644E0,-1.1723E2,1.4081548E0,1.4139111E-1,1.8E1,-8.449E1,5.054427E-2,3.842E1,-1.1789E2,3.792E1,-1.1712E2,-8.423E1,1.3659598E0,2.6339784E-2,9.623474E-1,-8.315E1,3.42E1,-1.2202E2,3.7E1,3.469E1,7.859299E-3,3.691E1,-8.345E1,-1.2242E2,-1.2239E2,3.8E1,6E0,1.671159E-1,3.401E1,-1.1712E2,-1.2216E2,2.6E1,-8.32E1,3.403E1,-1.9071177E-2,-8.34E1,3.705E1,-8.451E1,3.715E1,1.4839491E-1,3.419E1,1.5469857E-3,-1.4879311E-2,-1.5268387E-2,2.5326103E-2,4.6330195E-2,4.0135882E-4,5.3245652E-2,1.1715889E-2,-0E0,-2.7511967E-2,-1.16716875E-2,1.8670943E-2,1.7590661E-3,-2.4695922E-2,9.160824E-3,-2.8543785E-2,1.5938694E-2,-8.111562E-3,-2.7179945E-4,-2.3828737E-2,1.8830044E-2,-1.5640268E-2,1.1210541E-2,-1.5675467E-2,-8.365044E-3,-1.8159186E-2,2.193308E-3,-1.1925781E-2,-5.1743938E-3,-2.5955876E-2,-3.545166E-2,-2.2272792E-2,5.813044E-2,-0E0,4.014149E-2,8.395332E-3,2.817188E-2,1.1348913E-2,5.414295E-2,1.3946454E-2],"split_indices":[0,4,4,1,5,0,0,3,0,5,6,4,0,2,3,2,3,4,1,0,1,4,2,3,6,2,0,2,4,3,3,6,6,5,2,3,3,6,4,2,0,4,2,4,2,5,2,0,0,0,0,0,0,0,0,0,0,0,0,0,0,0,0,0,0,0,0,0,0,0,0,0,0,0,0,0,0,0,0,0,0,0,0,0,0,0,0],"split_type":[0,0,0,0,0,0,0,0,0,0,0,0,0,0,0,0,0,0,0,0,0,0,0,0,0,0,0,0,0,0,0,0,0,0,0,0,0,0,0,0,0,0,0,0,0,0,0,0,0,0,0,0,0,0,0,0,0,0,0,0,0,0,0,0,0,0,0,0,0,0,0,0,0,0,0,0,0,0,0,0,0,0,0,0,0,0,0],"sum_hessian":[1.2614E4,1.0294E4,2.32E3,6.566E3,3.728E3,1.925E3,3.95E2,4.284E3,2.282E3,1.119E3,2.609E3,1.71E3,2.15E2,2.88E2,1.07E2,3.826E3,4.58E2,4.18E2,1.864E3,1E1,1.109E3,7.67E2,1.842E3,5.14E2,1.196E3,2.23E2,6.5E1,5.9E1,4.8E1,3.352E3,4.74E2,1.78E2,2.8E2,3.01E2,1.17E2,1.135E3,7.29E2,2.55E2,8.54E2,2.95E2,4.72E2,4.57E2,1.385E3,1.88E2,3.26E2,1.003E3,1.93E2,1.28E2,9.5E1,2.3E1,3.6E1,3.4E1,1.4E1,1.89E2,3.163E3,2.71E2,2.03E2,1.46E2,3.2E1,1E1,2.7E2,1E0,3E2,1.7E1,1E2,1.059E3,7.6E1,2.8E1,7.01E2,1.32E2,1.23E2,4.05E2,4.49E2,7.6E1,2.19E2,2.22E2,2.35E2,4.85E2,9E2,1.8E2,8E0,1.97E2,1.29E2,2.61E2,7.42E2,1.26E2,6.7E1],"tree_param":{"num_deleted":"0","num_feature":"7","num_nodes":"87","size_leaf_vector":"1"}},{"base_weights":[2.603391E-3,-1.1460836E-1,1.09593526E-1,-4.8020463E-2,-1.9426389E-1,1.9732027E-1,1.7321088E-3,6.653144E-2,-8.218084E-2,-1.2732802E-1,-2.182553E-1,2.24186E-1,-2.1858375E-1,-5.9020683E-2,1.1673873E-1,-2.1212432E-1,1.2623756E-1,-4.677242E-2,-2.1353468E-1,-4.3615415E-3,-2.0810384E-1,-3.21452E-2,-1.7080423E-1,3.379481E-1,1.3651764E-1,-2.4877822E-2,-1.1077091E-3,-1.2088516E-3,-1.1813637E-1,1.9508971E-1,-1.3873421E-2,1.6196642E-2,-2.4378607E-1,-2.0139228E-1,1.553226E-1,2.8541347E-1,-9.9197425E-2,3.6412466E-2,-2.244716E-1,9.024602E-3,-2.2149002E-2,-1.251908E-1,-2.8220806E-2,4.8274156E-1,2.2910255E-1,4.453754E-2,9.329942E-2,1.4437641E-1,-6.2197678E-2,-2.2613658E-1,-6.998134E-2,9.480949E-2,5.128022E-1,-1.6602138E-1,4.9118698E-2,5.791565E-3,-2.658969E-2,1.6228111E-2,-2.9391682E-2,1.8085454E-2,-1.958435E-2,5.2346457E-2,4.7062277E-3,-1.5958218E-2,1.0612081E-2,-1.2958959E-2,-3.2790188E-2,-1.6988656E-2,-4.880157E-3,3.5733577E-2,7.40468E-2,3.941107E-2,2.3072604E-3,1.7864568E-2,2.3501616E-3,-8.227338E-3,2.7614428E-2,3.3083364E-2,-7.6133437E-3,-8.400644E-3,-2.903654E-2,-1.3244735E-2,3.5401133E-3,1.6767139E-2,-6.818666E-6,6.137402E-2,-9.246613E-3,-0E0,-2.499148E-2,-1.2498804E-3,2.8019175E-2],"categories":[],"categories_nodes":[],"categories_segments":[],"categories_sizes":[],"default_left":[0,0,0,0,0,0,0,0,0,0,0,0,0,0,0,0,0,0,0,0,0,0,0,0,0,0,0,0,0,0,0,0,0,0,0,0,0,0,0,0,0,0,0,0,0,0,0,0,0,0,0,0,0,0,0,0,0,0,0,0,0,0,0,0,0,0,0,0,0,0,0,0,0,0,0,0,0,0,0,0,0,0,0,0,0,0,0,0,0,0,0],"id":16,"left_children":[1,3,5,7,9,11,13,15,17,19,21,23,25,27,29,31,33,35,37,-1,39,-1,41,43,45,-1,-1,47,49,51,53,-1,55,57,59,61,63,-1,65,-1,-1,67,-1,69,71,-1,73,75,77,79,81,83,85,87,89,-1,-1,-1,-1,-1,-1,-1,-1,-1,-1,-1,-1,-1,-1,-1,-1,-1,-1,-1,-1,-1,-1,-1,-1,-1,-1,-1,-1,-1,-1,-1,-1,-1,-1,-1,-1],"loss_changes":[1.5796788E2,3.1526115E1,6.215429E1,1.295237E1,3.7525635E0,4.1044525E1,2.0884916E1,1.2743172E1,1.1486E1,4.756027E0,8.659233E0,3.3133087E1,1.1098061E0,6.526431E0,1.0810281E1,2.0638165E0,6.2796173E0,3.5361977E1,4.0387783E0,0E0,1.8287945E0,0E0,6.277195E0,2.142836E1,2.5088299E1,0E0,0E0,8.904452E0,4.5019474E0,1.9710964E1,3.96501E0,0E0,1.2291899E0,2.3919892E0,5.6111803E0,1.4843292E1,2.203105E1,0E0,4.3188267E0,0E0,0E0,3.1365767E0,0E0,1.6294891E1,2.8898968E1,0E0,1.0043574E1,9.20142E0,3.929797E0,1.9651651E0,4.6202536E0,3.7002435E0,1.0375153E1,1.6338947E0,